svm_type c_svc
kernel_type rbf
gamma 2
nr_class 2
total_sv 1300
rho 0.169231
distance 35.5444
label 1 -1
nr_sv 540 760
SV
1.1689453125 1:364954 2:364416 3:362850 4:362312 5:361774 6:361236 7:360698 8:358104 9:354482 10:353944 11:353406 12:352354 13:348732 14:345110 15:341488 16:340950 17:337328 18:333252 19:329630 20:326008 21:323414 22:322876 23:318800 24:315178 25:314640 26:311018 27:310480 28:309942 29:309404 30:305782 31:305244 32:304706 33:302112 34:298490 35:294868 36:291246 37:290708 38:287086 39:286548 40:282926 41:279304 42:275682 43:275144 44:271522 45:267900 46:264278 47:260656 48:260118 49:259580 50:258528 51:254906 52:254368 53:250746 54:250208 55:249670 56:248618 57:244996 58:241374 59:240836 60:237214 61:236676 
1.1689453125 1:334299 2:330677 3:330139 4:326517 5:322895 6:322357 7:321819 8:318197 9:317659 10:317121 11:314013 12:310391 13:309853 14:306231 15:305693 16:302071 17:301533 18:297911 19:294289 20:293751 21:291157 22:290619 23:288539 24:288001 25:285407 26:284869 27:282275 28:281737 29:279143 30:278605 31:275497 32:271875 33:268253 34:264631 35:261009 36:257387 37:256849 38:253227 39:249605 40:249067 41:248529 42:247991 43:247453 44:243831 45:243293 46:242241 47:238619 48:237567 49:237029 50:236491 51:232869 52:232331 53:228709 54:225087 55:221465 56:220927 57:217819 58:216767 59:214687 60:211065 61:210527 
1.1689453125 1:373022 2:370428 3:369890 4:368838 5:368300 6:364678 7:361056 8:360518 9:356896 10:356358 11:352736 12:349114 13:345492 14:341870 15:338248 16:334626 17:331518 18:330980 19:327358 20:323736 21:323198 22:322660 23:321608 24:317986 25:317448 26:315368 27:311746 28:310180 29:309642 30:306020 31:302398 32:301860 33:298238 34:294616 35:292022 36:288400 37:284778 38:281156 39:280104 40:277510 41:275944 42:275406 43:271784 44:268162 45:264540 46:264002 47:261408 48:257786 49:256220 50:253112 51:250004 52:246896 53:243788 54:240680 55:237572 56:234464 57:231356 58:228248 59:225140 60:221518 61:219952 
1.1689453125 1:514592 2:511998 3:511460 4:510408 5:509356 6:508818 7:507766 8:504144 9:500522 10:498956 11:495848 12:493254 13:489632 14:488066 15:486500 16:485962 17:482340 18:481802 19:478180 20:477642 21:474020 22:470398 23:467290 24:463668 25:460046 26:456424 27:455886 28:453806 29:450184 30:449646 31:446024 32:442402 33:438780 34:435158 35:434620 36:430998 37:427376 38:423754 39:420132 40:417538 41:413916 42:412864 43:409242 44:408704 45:405082 46:401460 47:397838 48:394216 49:393164 50:389542 51:389004 52:388466 53:387414 54:383792 55:381198 56:377576 57:374982 58:371360 59:367738 60:367200 61:363578 
1.1689453125 1:403328 2:401248 3:400710 4:400172 5:399634 6:399096 7:396502 8:395964 9:392342 10:391804 11:388182 12:384560 13:380938 14:377830 15:377292 16:374698 17:374160 18:370056 19:365952 20:363358 21:362820 22:360226 23:359688 24:356066 25:355528 26:352420 27:351882 28:348774 29:348236 30:347698 31:345104 32:344566 33:343514 34:339892 35:336784 36:335218 37:333652 38:330030 39:328464 40:326898 41:325332 42:323734 43:319630 44:317036 45:316498 46:315960 47:312852 48:312314 49:308692 50:308154 51:305528 52:301424 53:300886 54:299834 55:299296 56:298758 57:298220 58:297682 59:296084 60:291980 61:291442 
1.1689453125 1:307074 2:306536 3:304970 4:304432 5:303894 6:303356 7:300762 8:297140 9:293518 10:289896 11:289358 12:285736 13:285198 14:282604 15:278982 16:274906 17:271284 18:270746 19:267638 20:265044 21:264506 22:260884 23:257262 24:253640 25:253102 26:252564 27:248942 28:248404 29:247866 30:247328 31:245248 32:244196 33:242116 34:238494 35:234872 36:234334 37:230712 38:227090 39:226552 40:222930 41:220336 42:219798 43:217204 44:216152 45:215614 46:211992 47:211454 48:207832 49:204210 50:203672 51:201592 52:197970 53:194348 54:190726 55:187104 56:184510 57:180888 58:180350 59:176728 60:176190 61:172568 
1.1689453125 1:436772 2:434178 3:433640 4:432588 5:431536 6:430998 7:427376 8:423754 9:423216 10:419594 11:419056 12:415434 13:411812 14:408190 15:404568 16:400946 17:397324 18:395758 19:392650 20:392112 21:388490 22:387952 23:384330 24:380708 25:380170 26:378090 27:374982 28:373416 29:371850 30:368742 31:365634 32:362526 33:359418 34:356310 35:353202 36:350094 37:346986 38:343878 39:340770 40:338176 41:335582 42:332988 43:331936 44:328314 45:327776 46:327238 47:324130 48:323592 49:319970 50:316348 51:312726 52:309104 53:307538 54:305972 55:303378 56:299756 57:296134 58:295596 59:291974 60:288352 61:285244 
1.1689453125 1:306692 2:304612 3:304074 4:303536 5:301456 6:299376 7:295754 8:295216 9:292622 10:292084 11:289490 12:286896 13:284302 14:283250 15:282712 16:279090 17:278552 18:278014 19:274392 20:270770 21:268176 22:264554 23:260932 24:257310 25:256772 26:256234 27:252612 28:252074 29:251536 30:250998 31:247376 32:246838 33:246300 34:242678 35:241626 36:241088 37:237980 38:234358 39:233820 40:233282 41:229660 42:226038 43:222416 44:218794 45:218256 46:215662 47:215124 48:212530 49:211992 50:210940 51:207318 52:206780 53:203158 54:199536 55:198998 56:198460 57:194838 58:191216 59:190678 60:187056 61:183434 
1.1689453125 1:294759 2:292165 3:291627 4:290575 5:289523 6:288985 7:288447 8:284825 9:281203 10:278609 11:278071 12:274449 13:270827 14:269775 15:266153 16:263045 17:262507 18:258885 19:255263 20:251641 21:248533 22:244911 23:241289 24:237667 25:237129 26:235563 27:234511 28:230889 29:229837 30:226215 31:225163 32:221541 33:217919 34:216867 35:213245 36:212193 37:208571 38:207005 39:203383 40:202845 41:199223 42:195601 43:194549 44:190927 45:189875 46:186253 47:185715 48:184663 49:184125 50:183587 51:179965 52:176343 53:173749 54:170127 55:166505 56:163397 57:162859 58:159237 59:158699 60:155077 61:154539 
1.1689453125 1:369534 2:367454 3:366916 4:366378 5:364812 6:362218 7:358596 8:357030 9:353408 10:349786 11:349248 12:345626 13:345088 14:341466 15:337844 16:334222 17:332110 18:328006 19:327468 20:323846 21:320224 22:317116 23:316578 24:316040 25:315502 26:312394 27:311856 28:311318 29:309238 30:308700 31:307648 32:305054 33:304002 34:301408 35:300870 36:298276 37:297738 38:295144 39:294606 40:292012 41:291474 42:287370 43:286318 44:285780 45:282158 46:281620 47:277998 48:274376 49:273324 50:269702 51:269164 52:265542 53:262434 54:261896 55:260330 56:256226 57:252604 58:252066 59:248444 60:246878 61:245312 
1.1689453125 1:384046 2:381966 3:381428 4:380890 5:377782 6:374674 7:371566 8:368458 9:364836 10:361214 11:357592 12:353970 13:352404 14:351866 15:348244 16:344622 17:341514 18:337892 19:334270 20:330648 21:330110 22:329058 23:328520 24:327982 25:327444 26:324336 27:323798 28:321718 29:321180 30:318072 31:314964 32:311856 33:308748 34:305640 35:303560 36:299938 37:297858 38:294236 39:293698 40:291104 41:289538 42:285916 43:285378 44:282784 45:281732 46:281194 47:280656 48:278062 49:274440 50:271332 51:268224 52:264602 53:260980 54:257358 55:253736 56:252170 57:251632 58:248010 59:244388 60:241280 61:239200 
1.1689453125 1:286545 2:284465 3:283927 4:283389 5:282851 6:282313 7:281775 8:281237 9:279157 10:276049 11:272427 12:270861 13:269295 14:266187 15:263079 16:259971 17:257377 18:256839 19:253731 20:251651 21:248029 22:245949 23:242327 24:240247 25:236625 26:233517 27:230409 28:227815 29:226249 30:222627 31:220033 32:219495 33:166948 34:157508 35:133754 36:131160 37:127538 38:127000 39:124920 40:124382 41:120760 42:120222 43:117114 44:116576 45:112954 46:112416 47:110850 48:107228 49:106690 50:103582 51:103044 52:101992 53:101454 54:97832 55:97294 56:96756 57:96218 58:95166 59:92572 60:92034 61:91496 
1.1689453125 1:367022 2:366484 3:364404 4:363866 5:363328 6:362790 7:361738 8:358116 9:357578 10:353956 11:353418 12:349796 13:349258 14:345636 15:342014 16:338392 17:337854 18:337316 19:334722 20:331100 21:327478 22:323856 23:323318 24:322780 25:322242 26:318620 27:318082 28:317544 29:316492 30:312870 31:309248 32:305626 33:302004 34:301466 35:297844 36:297306 37:293684 38:290062 39:286440 40:282818 41:282280 42:281742 43:278120 44:277582 45:273960 46:273422 47:269800 48:269262 49:265640 50:262018 51:261480 52:259914 53:256806 54:253184 55:252646 56:249024 57:248486 58:244864 59:241242 60:237620 61:233998 
1.1689453125 1:404558 2:404020 3:402968 4:402430 5:401892 6:401354 7:400816 8:399250 9:398712 10:395090 11:391468 12:388360 13:387822 14:387284 15:385718 16:382096 17:378474 18:377936 19:374314 20:370692 21:368580 22:364476 23:363938 24:360316 25:359778 26:357152 27:353048 28:351996 29:348374 30:344752 31:341130 32:340592 33:336970 34:336432 35:332810 36:329188 37:326080 38:325542 39:322434 40:318812 41:318274 42:316162 43:312058 44:311520 45:310982 46:310444 47:307336 48:306798 49:306260 50:305722 51:305184 52:301562 53:297940 54:297402 55:293780 56:292182 57:288078 58:287540 59:283918 60:283380 61:279758 
1.1689453125 1:453646 2:453108 3:450514 4:449976 5:448924 6:447358 7:445792 8:444226 9:442660 10:441094 11:439528 12:438990 13:435368 14:431746 15:428638 16:427072 17:425506 18:423940 19:420832 20:419266 21:417700 22:416134 23:414568 24:413002 25:411436 26:409870 27:407276 28:403654 29:402088 30:398466 31:394844 32:393792 33:391198 34:388090 35:386524 36:384958 37:383392 38:381826 39:380260 40:378694 41:377128 42:375562 43:373996 44:371916 45:370350 46:368784 47:367218 48:365652 49:364086 50:362520 51:360954 52:359388 53:357822 54:356256 55:354690 56:353124 57:351558 58:349992 59:348426 60:345832 61:345294 
1.1689453125 1:371122 2:370584 3:370046 4:368480 5:367942 6:367404 7:366866 8:366328 9:362706 10:359084 11:358546 12:354924 13:354386 14:350764 15:347142 16:346604 17:342982 18:338906 19:335284 20:334746 21:331124 22:328530 23:327992 24:324370 25:323832 26:320210 27:316588 28:316050 29:315512 30:311890 31:311352 32:310814 33:307192 34:306654 35:303032 36:299410 37:298358 38:294736 39:291114 40:287492 41:285412 42:284874 43:281252 44:277630 45:277092 46:276554 47:274474 48:273936 49:270314 50:266692 51:265640 52:262018 53:258396 54:254774 55:254236 56:250614 57:246992 58:243370 59:239748 60:239210 61:236616 
1.1689453125 1:461634 2:461096 3:458502 4:457964 5:457426 6:456888 7:456350 8:454270 9:450648 10:449082 11:447516 12:445950 13:444384 14:441276 15:438168 16:434546 17:431438 18:430386 19:426764 20:425198 21:423632 22:422066 23:420500 24:418934 25:417368 26:415802 27:414236 28:412670 29:411104 30:409538 31:407972 32:406406 33:404840 34:403274 35:401708 36:401170 37:398062 38:396496 39:394930 40:393364 41:391798 42:390232 43:388666 44:387100 45:385534 46:383968 47:382402 48:380836 49:379270 50:377704 51:376138 52:374572 53:373006 54:371440 55:369874 56:368308 57:366742 58:365176 59:363610 60:362044 61:360478 
1.1689453125 1:435436 2:433356 3:432818 4:432280 5:428658 6:428120 7:425012 8:421904 9:418796 10:415688 11:412580 12:409472 13:406364 14:403256 15:401176 16:397554 17:397016 18:393908 19:392342 20:390776 21:387668 22:385588 23:381966 24:381428 25:377806 26:377268 27:374674 28:372080 29:371542 30:371004 31:368410 32:364788 33:361680 34:361142 35:357520 36:353898 37:352846 38:349224 39:347658 40:347120 41:343498 42:339876 43:336768 44:333660 45:330552 46:330014 47:326392 48:322770 49:322232 50:318610 51:318072 52:316506 53:313398 54:310290 55:307182 56:304074 57:300966 58:298886 59:295264 60:292156 61:289048 
1.1689453125 1:389546 2:389008 3:387442 4:386904 5:386366 6:385314 7:382720 8:379098 9:375990 10:374424 11:373886 12:370264 13:366642 14:365076 15:363510 16:361944 17:358322 18:354700 19:352106 20:348484 21:345376 22:343810 23:342244 24:340678 25:337056 26:336518 27:332896 28:332358 29:328736 30:328198 31:325604 32:323010 33:320416 34:319878 35:317284 36:316746 37:314152 38:312072 39:308450 40:306370 41:302748 42:302210 43:299102 44:298564 45:295970 46:294404 47:293866 48:290758 49:290220 50:289682 51:288116 52:287578 53:283956 54:280848 55:280310 56:276688 57:273066 58:269444 59:268906 60:267340 61:263718 
1.1689453125 1:552722 2:552184 3:549590 4:549052 5:548514 6:547976 7:545382 8:543816 9:542250 10:539142 11:537576 12:534468 13:532902 14:529794 15:528228 16:525120 17:523554 18:520446 19:518880 20:515772 21:514206 22:511098 23:507990 24:506424 25:504858 26:503292 27:501726 28:500160 29:498594 30:497028 31:495462 32:493896 33:492330 34:491792 35:490226 36:488660 37:487094 38:485528 39:483962 40:482396 41:480830 42:479264 43:477698 44:476132 45:474566 46:473000 47:471948 48:468326 49:467274 50:463652 51:460544 52:457436 53:454328 54:450706 55:447084 56:446032 57:442410 58:441872 59:440306 60:438740 61:437174 
1.1689453125 1:402012 2:401474 3:399908 4:399370 5:398832 6:398294 7:397756 8:397218 9:396680 10:393572 11:390978 12:389926 13:389388 14:385766 15:382144 16:378522 17:377984 18:374362 19:373824 20:370202 21:369664 22:366042 23:362420 24:359826 25:359288 26:355666 27:352044 28:348422 29:347884 30:347346 31:345266 32:344214 33:340592 34:336970 35:336432 36:332810 37:329188 38:325112 39:321490 40:320952 41:317330 42:313708 43:313170 44:309548 45:309010 46:305388 47:304850 48:301228 49:297606 50:297068 51:296530 52:295992 53:294426 54:293888 55:292836 56:289214 57:288676 58:285054 59:284516 60:283978 61:282926 
1.1689453125 1:474260 2:472180 3:471642 4:471104 5:470566 6:467924 7:463836 8:463298 9:459676 10:456054 11:452432 12:451894 13:448272 14:444650 15:441028 16:440490 17:436868 18:436330 19:432708 20:429086 21:428548 22:424926 23:421304 24:420766 25:417658 26:415064 27:414526 28:413988 29:413450 30:411884 31:407796 32:407258 33:404150 34:400528 35:396906 36:396368 37:392746 38:389124 39:385502 40:381880 41:378258 42:374636 43:374098 44:370476 45:369938 46:365850 47:363256 48:362718 49:359610 50:358044 51:357506 52:353884 53:350776 54:350238 55:346616 56:346078 57:342456 58:341918 59:338296 60:334674 61:331052 
1.1689453125 1:423384 2:422846 3:421280 4:420742 5:420204 6:419666 7:419128 8:416534 9:415996 10:412374 11:411836 12:408214 13:407676 14:405596 15:401974 16:401436 17:397814 18:397276 19:393654 20:393116 21:389494 22:385872 23:382250 24:381712 25:381174 26:377552 27:377014 28:376476 29:372854 30:369232 31:366124 32:365586 33:361964 34:358342 35:354720 36:351098 37:351014 38:346938 39:343316 40:342778 41:339156 42:335534 43:331912 44:328290 45:324668 46:321046 47:320508 48:319970 49:318918 50:318380 51:317328 52:313706 53:313168 54:309546 55:309008 56:305386 57:301310 58:297688 59:297150 60:293528 61:289906 
1.1689453125 1:382490 2:381952 3:380386 4:379848 5:379310 6:378772 7:376178 8:375640 9:372018 10:371480 11:370942 12:367320 13:363698 14:360076 15:359538 16:355916 17:355378 18:351756 19:351218 20:347596 21:343974 22:341380 23:337758 24:334136 25:330514 26:329976 27:327896 28:327358 29:323736 30:320114 31:316492 32:312870 33:310276 34:306654 35:306116 36:302494 37:298872 38:295250 39:294712 40:291090 41:287468 42:286930 43:283308 44:282770 45:282232 46:281694 47:280128 48:279590 49:279052 50:275430 51:271808 52:271270 53:269190 54:265568 55:261946 56:260894 57:259842 58:256220 59:252598 60:248976 61:246896 
1.1689453125 1:406794 2:405228 3:404690 4:404152 5:403614 6:402048 7:398426 8:394804 9:394266 10:390644 11:390106 12:386484 13:384404 14:380782 15:380244 16:378678 17:378140 18:374518 19:370896 20:367274 21:363198 22:359576 23:358010 24:357472 25:356420 26:353312 27:352774 28:352236 29:351184 30:347562 31:343940 32:343402 33:340808 34:337186 35:336648 36:335596 37:335058 38:331436 39:327814 40:324192 41:323654 42:320032 43:316410 44:312788 45:312250 46:308628 47:308090 48:304468 49:303930 50:300308 51:296686 52:296148 53:292526 54:291988 55:288366 56:287828 57:284206 58:283668 59:282102 60:281564 61:281026 
1.1689453125 1:473852 2:473314 3:470720 4:470182 5:469644 6:468592 7:464970 8:461348 9:458754 10:455132 11:451510 12:448402 13:444780 14:441158 15:437536 16:433914 17:430806 18:430268 19:426646 20:423024 21:419402 22:418864 23:418326 24:415732 25:412110 26:408488 27:404866 28:401244 29:397622 30:397084 31:393462 32:389840 33:386218 34:382596 35:382058 36:378436 37:374814 38:371192 39:367570 40:363948 41:360326 42:359788 43:356166 44:352544 45:348922 46:346328 47:342706 48:339084 49:335462 50:331840 51:330788 52:327166 53:326628 54:325576 55:321954 56:321416 57:320364 58:317770 59:315176 60:311554 61:310502 
1.1689453125 1:236095 2:235557 3:235019 4:234481 5:230859 6:228265 7:224643 8:222049 9:218427 10:214805 11:214267 12:210645 13:207023 14:203401 15:199779 16:196671 17:195105 18:194567 19:190945 20:190407 21:186785 22:174550 23:134843 24:133277 25:131711 26:130145 27:125636 28:125098 29:121476 30:117854 31:115260 32:111638 33:108530 34:106964 35:103342 36:99720 37:97126 38:96588 39:95536 40:91914 41:90348 42:86726 43:83104 44:82566 45:82028 46:80976 47:77354 48:76816 49:75764 50:72142 51:71604 52:69010 53:65902 54:62794 55:59686 56:57092 57:53470 58:50362 59:47768 60:44146 61:41038 
1.1689453125 1:458416 2:457878 3:455284 4:454746 5:453694 6:452128 7:450562 8:448996 9:447430 10:445864 11:444298 12:442732 13:441166 14:439600 15:437006 16:433384 17:431818 18:430252 19:428686 20:427120 21:425554 22:423988 23:422422 24:420856 25:419290 26:418238 27:414616 28:413050 29:411484 30:409918 31:408352 32:406786 33:405220 34:403654 35:402088 36:400522 37:398956 38:398418 39:397880 40:396314 41:394748 42:393182 43:391102 44:388508 45:387456 46:386918 47:385866 48:382244 49:379650 50:376028 51:372406 52:369298 53:366190 54:364624 55:363058 56:361492 57:359926 58:358360 59:356794 60:355228 61:353662 
1.1689453125 1:432068 2:431530 3:428936 4:428398 5:427860 6:425266 7:422672 8:419050 9:417484 10:415918 11:414352 12:412786 13:411220 14:409654 15:408088 16:406522 17:404956 18:403390 19:401824 20:400258 21:398692 22:397126 23:395560 24:393994 25:392428 26:390862 27:389296 28:387730 29:386164 30:384598 31:383032 32:381466 33:379900 34:378334 35:376768 36:375202 37:372094 38:371556 39:371018 40:367910 41:366344 42:364778 43:363212 44:361646 45:358538 46:355430 47:353864 48:350242 49:346620 50:345054 51:343488 52:341922 53:338814 54:337248 55:334654 56:333088 57:329466 58:327900 59:326334 60:324768 61:323716 
1.1689453125 1:220158 2:219620 3:219082 4:218030 5:217492 6:216954 7:216416 8:214850 9:213284 10:211718 11:210152 12:208586 13:207020 14:205454 15:203888 16:202322 17:200756 18:199190 19:197624 20:196058 21:194492 22:192926 23:191360 24:189794 25:188228 26:186662 27:185096 28:183530 29:181964 30:180398 31:178832 32:177266 33:175700 34:173106 35:170512 36:169974 37:168408 38:166842 39:165276 40:163710 41:162144 42:160578 43:157984 44:157446 45:153824 46:152258 47:150692 48:149126 49:147560 50:145994 51:144428 52:142862 53:141296 54:137208 55:135642 56:134076 57:132510 58:130944 59:129378 60:127812 61:125218 
1.1689453125 1:403176 2:402638 3:400558 4:400020 5:399482 6:398430 7:397892 8:394270 9:391162 10:389596 11:385974 12:385436 13:381814 14:379188 15:375084 16:374546 17:372980 18:369358 19:365736 20:363142 21:360548 22:360010 23:359472 24:355850 25:353224 26:349120 27:348582 28:348044 29:346992 30:343370 31:341290 32:337668 33:337130 34:334022 35:333484 36:329862 37:329324 38:325702 39:325164 40:321542 41:319430 42:315326 43:314788 44:312708 45:312170 46:308548 47:304926 48:302300 49:298196 50:297658 51:297120 52:296582 53:293988 54:293450 55:289828 56:286206 57:282584 58:278962 59:275340 60:271718 61:268096 
1.1689453125 1:395486 2:394948 3:393382 4:392844 5:392306 6:391768 7:391230 8:388636 9:385014 10:381392 11:379312 12:375690 13:372068 14:371530 15:367908 16:367370 17:363748 18:360126 19:356504 20:355966 21:353372 22:352834 23:349212 24:348674 25:345052 26:341430 27:340892 28:337270 29:335190 30:331568 31:327946 32:327408 33:326356 34:322734 35:319112 36:318574 37:318036 38:315956 39:315418 40:311796 41:308174 42:306094 43:302472 44:301934 45:298826 46:298288 47:294666 48:294128 49:290506 50:289968 51:289430 52:288892 53:287326 54:286788 55:284708 56:284170 57:280548 58:276926 59:276388 60:272766 61:272228 
1.1689453125 1:357720 2:355126 3:354588 4:353536 5:350942 6:347320 7:344212 8:341618 9:337996 10:334374 11:332808 12:329186 13:328648 14:325026 15:321404 16:318296 17:315188 18:313622 19:313084 20:309462 21:305840 22:302218 23:301680 24:301142 25:300090 26:296468 27:292846 28:289224 29:285602 30:281980 31:281442 32:277820 33:277282 34:273660 35:270038 36:266416 37:265878 38:262256 39:258634 40:255012 41:251390 42:250338 43:246716 44:243608 45:243070 46:239448 47:235826 48:232204 49:231666 50:228044 51:224422 52:223884 53:220262 54:216640 55:213018 56:209396 57:205320 58:201698 59:198076 60:194454 61:190832 
1.1689453125 1:373906 2:371312 3:370774 4:368180 5:365586 6:361964 7:359370 8:355748 9:352126 10:351588 11:347966 12:347428 13:343806 14:340184 15:336562 16:333454 17:330346 18:326724 19:323102 20:322564 21:319970 22:316348 23:314782 24:313730 25:310108 26:307514 27:303892 28:301298 29:297676 30:294054 31:290946 32:289894 33:286272 34:285734 35:284682 36:284144 37:283606 38:279984 39:276362 40:275824 41:272202 42:271664 43:268042 44:264420 45:260798 46:257176 47:253554 48:249932 49:246824 50:246286 51:242664 52:239042 53:235420 54:234882 55:231774 56:230722 57:227100 58:223992 59:220884 60:218290 61:214668 
1.1689453125 1:457292 2:456754 3:454674 4:454136 5:452570 6:451004 7:449438 8:447872 9:446306 10:444740 11:443174 12:441608 13:440042 14:438476 15:436910 16:435344 17:433778 18:432212 19:430646 20:429080 21:425458 22:422864 23:419242 24:417676 25:416110 26:414544 27:412978 28:411412 29:409332 30:407766 31:404144 32:400522 33:399984 34:399446 35:397366 36:394772 37:393720 38:390098 39:389560 40:388508 41:385914 42:384348 43:382782 44:381730 45:380164 46:378598 47:377032 48:375466 49:374414 50:372848 51:371796 52:370230 53:368664 54:367098 55:365532 56:362424 57:360858 58:358264 59:357212 60:355646 61:352538 
1.1689453125 1:434848 2:434310 3:433258 4:432720 5:432182 6:431644 7:431106 8:427484 9:426946 10:423838 11:422786 12:422248 13:421710 14:421172 15:418064 16:417526 17:416988 18:414908 19:411286 20:410748 21:407126 22:406588 23:402966 24:400340 25:396236 26:395184 27:391562 28:391024 29:387402 30:386864 31:386326 32:382704 33:379082 34:375460 35:371838 36:368216 37:365108 38:364570 39:364032 40:363494 41:362956 42:362418 43:361880 44:361342 45:358234 46:357696 47:357158 48:356620 49:353512 50:352974 51:352436 52:351898 53:351360 54:348252 55:347714 56:347176 57:345610 58:345072 59:341964 60:340398 61:338832 
1.1689453125 1:353226 2:350632 3:350094 4:346472 5:342850 6:339228 7:336120 8:335582 9:331960 10:328338 11:324716 12:324178 13:321070 14:318476 15:314854 16:312260 17:308638 18:306044 19:302422 20:299828 21:296206 22:293612 23:289990 24:287396 25:283774 26:282722 27:279100 28:275992 29:274940 30:274402 31:273350 32:272812 33:270732 34:270194 35:266572 36:266034 37:262412 38:261874 39:258252 40:254630 41:251008 42:247386 43:243764 44:240142 45:237034 46:233926 47:233388 48:229766 49:229228 50:225606 51:221984 52:218876 53:215768 54:214202 55:211094 56:207986 57:204878 58:201770 59:198662 60:195554 61:192446 
1.1689453125 1:379288 2:378750 3:377184 4:376646 5:376108 6:375570 7:375032 8:374494 9:371386 10:367764 11:366712 12:363090 13:359468 14:355846 15:355308 16:351686 17:348064 18:344442 19:340820 20:340282 21:337688 22:337150 23:333528 24:332990 25:329368 26:325746 27:325208 28:323642 29:320020 30:318968 31:318430 32:314808 33:311186 34:307564 35:307026 36:306488 37:302866 38:299244 39:295622 40:295084 41:291462 42:287840 43:284218 44:283680 45:280058 46:279520 47:278982 48:278444 49:276878 50:276340 51:275802 52:274750 53:271128 54:267506 55:266454 56:265402 57:264864 58:261242 59:257620 60:253998 61:253460 
1.1689453125 1:461154 2:460616 3:458022 4:457484 5:456432 6:454866 7:453300 8:451734 9:450168 10:448602 11:447036 12:445470 13:443904 14:440796 15:439230 16:437664 17:434556 18:432990 19:431424 20:429858 21:428292 22:426726 23:425160 24:423594 25:422542 26:418920 27:417354 28:415788 29:414222 30:412656 31:411090 32:409524 33:407958 34:406392 35:404826 36:401718 37:401180 38:400642 39:399076 40:397510 41:395944 42:394378 43:392812 44:391246 45:389680 46:388114 47:386548 48:384982 49:383416 50:381850 51:380284 52:378718 53:377152 54:375586 55:374534 56:372968 57:371916 58:370350 59:367242 60:365676 61:364110 
1.1689453125 1:464622 2:464084 3:463032 4:461466 5:460928 6:458334 7:456768 8:455202 9:453636 10:452070 11:450504 12:448938 13:447372 14:445806 15:444240 16:442674 17:441108 18:439542 19:437976 20:436410 21:434844 22:433278 23:431712 24:430146 25:428580 26:427014 27:425448 28:423882 29:422316 30:420750 31:419184 32:417618 33:416052 34:414486 35:412920 36:411354 37:409788 38:408222 39:406656 40:405090 41:404552 42:404014 43:401934 44:400368 45:398288 46:396722 47:395156 48:393590 49:392024 50:390458 51:388892 52:387326 53:385760 54:384194 55:382628 56:381062 57:379496 58:377930 59:376364 60:374798 61:373232 
1.1689453125 1:402616 2:400536 3:399998 4:399460 5:398922 6:396842 7:395276 8:394738 9:392144 10:389550 11:388498 12:387960 13:386394 14:384314 15:382748 16:380668 17:380130 18:378050 19:375970 20:374404 21:372324 22:370758 23:368678 24:367112 25:364518 26:360896 27:360358 28:358278 29:356712 30:356174 31:354094 32:352528 33:349420 34:348882 35:348344 36:346778 37:346240 38:345702 39:344650 40:342570 41:341518 42:340466 43:338386 44:337334 45:335768 46:333174 47:332122 48:330556 49:328990 50:326910 51:325344 52:324806 53:321698 54:321160 55:320108 56:317000 57:314920 58:313354 59:312816 60:310736 61:309170 
1.1689453125 1:404216 2:403678 3:403140 4:402088 5:401550 6:401012 7:400474 8:399936 9:399398 10:396290 11:394724 12:392644 13:391078 14:388998 15:388460 16:386380 17:383786 18:380164 19:378598 20:376518 21:375980 22:373900 23:373362 24:371282 25:369202 26:367636 27:365556 28:363990 29:361910 30:360344 31:358264 32:357726 33:357188 34:355622 35:353028 36:351976 37:349382 38:348330 39:346764 40:344684 41:343118 42:341038 43:338958 44:336878 45:335312 46:333232 47:331666 48:329586 49:328020 50:325940 51:325402 52:323836 53:322270 54:320704 55:318624 56:317572 57:316006 58:313926 59:313388 60:311822 61:309742 
1.1689453125 1:475076 2:472996 3:472458 4:471920 5:471382 6:470844 7:470306 8:469768 9:469230 10:467150 11:463528 12:460934 13:460396 14:457288 15:456750 16:453128 17:452590 18:449996 19:446888 20:443780 21:442214 22:438592 23:438054 24:435460 25:433894 26:432328 27:430248 28:426626 29:426088 30:423494 31:420386 32:419848 33:416226 34:414660 35:413094 36:412556 37:408934 38:407882 39:404260 40:402694 41:402156 42:398534 43:397996 44:394374 45:390752 46:390214 47:386592 48:386054 49:382432 50:378810 51:376730 52:373108 53:371028 54:367406 55:366868 56:363246 57:360652 58:360114 59:359062 60:356468 61:353360 
1.1689453125 1:415890 2:413296 3:412758 4:410164 5:407056 6:405490 7:403924 8:402358 9:400792 10:399226 11:397660 12:396094 13:394528 14:391420 15:388312 16:384690 17:381068 18:377446 19:375880 20:374314 21:372748 22:372210 23:368588 24:364966 25:361344 26:359778 27:359240 28:358188 29:357650 30:354028 31:350406 32:346784 33:343162 34:339540 35:335918 36:335380 37:331758 38:328136 39:324514 40:320892 41:319840 42:316218 43:315680 44:314628 45:312034 46:311496 47:308388 48:306822 49:305256 50:303690 51:300582 52:297474 53:294366 54:290744 55:287122 56:283500 57:279878 58:276256 59:272634 60:269526 61:268988 
1.1689453125 1:453862 2:453324 3:450730 4:450192 5:449140 6:447574 7:446008 8:444442 9:441334 10:439768 11:438202 12:436636 13:435070 14:433504 15:431938 16:430372 17:428806 18:427240 19:425674 20:424108 21:422542 22:420976 23:419410 24:417844 25:416278 26:414712 27:413146 28:410038 29:408472 30:405364 31:403798 32:402232 33:400666 34:399100 35:397534 36:395968 37:394402 38:393864 39:392812 40:391246 41:389680 42:388114 43:386548 44:384982 45:383416 46:381850 47:380284 48:378718 49:377152 50:375586 51:374020 52:372454 53:370888 54:369322 55:367756 56:366190 57:364624 58:362030 59:358408 60:355300 61:352706 
1.1689453125 1:359759 2:357165 3:356627 4:355575 5:354523 6:353985 7:353447 8:352395 9:348773 10:345665 11:342043 12:338421 13:334799 14:334261 15:331667 16:328045 17:324423 18:320801 19:317179 20:315613 21:315075 22:311453 23:307831 24:304209 25:300587 26:296965 27:296427 28:292805 29:289183 30:285561 31:281939 32:280887 33:277265 34:276727 35:275675 36:275137 37:272543 38:269949 39:266327 40:263733 41:260111 42:256489 43:255951 44:252329 45:248707 46:245085 47:241463 48:238355 49:235247 50:234709 51:231087 52:227465 53:223843 54:200180 55:196558 56:192936 57:189314 58:185692 59:183612 60:179990 61:179452 
1.1689453125 1:430232 2:428152 3:427614 4:427076 5:426538 6:426000 7:424434 8:420812 9:420274 10:416652 11:416114 12:413006 13:409898 14:406276 15:403168 16:402630 17:401064 18:400526 19:396904 20:396366 21:393740 22:389636 23:389098 24:385476 25:381854 26:378746 27:378208 28:377670 29:376618 30:376080 31:373486 32:372948 33:372410 34:371872 35:368764 36:367198 37:365632 38:362524 39:359930 40:359392 41:358854 42:358316 43:354694 44:353128 45:350020 46:346912 47:343290 48:339668 49:336046 50:331942 51:330890 52:327268 53:325702 54:322080 55:318458 56:314836 57:314298 58:311190 59:308596 60:308058 61:304436 
1.1689453125 1:448006 2:447468 3:444874 4:444336 5:442256 6:438634 7:437582 8:433960 9:431366 10:427744 11:424122 12:421014 13:419448 14:417882 15:416316 16:414750 17:411642 18:408534 19:406968 20:405402 21:402294 22:399186 23:397620 24:396054 25:394488 26:392922 27:391356 28:389790 29:389252 30:388714 31:387148 32:385582 33:384016 34:382450 35:380884 36:379318 37:377752 38:376186 39:374620 40:373054 41:371488 42:369922 43:368356 44:366790 45:365224 46:363658 47:362092 48:360526 49:358960 50:357394 51:355314 52:353748 53:352182 54:350616 55:348022 56:347484 57:344890 58:342296 59:340730 60:339164 61:337598 
1.1689453125 1:469542 2:467462 3:466924 4:466386 5:465848 6:463768 7:461174 8:457552 9:454444 10:450822 11:446746 12:443124 13:440016 14:439478 15:435856 16:432234 17:428612 18:428074 19:424966 20:423400 21:420806 22:420268 23:416646 24:413024 25:412486 26:409378 27:408840 28:405732 29:402624 30:399516 31:396408 32:394842 33:393276 34:390168 35:387060 36:383952 37:380844 38:377736 39:376170 40:374604 41:371496 42:368388 43:366822 44:365256 45:362148 46:360068 47:356446 48:355394 49:351772 50:351234 51:350696 52:347588 53:347050 54:346512 55:344946 56:342866 57:340786 58:337164 59:333088 60:331008 61:328928 
1.1689453125 1:529276 2:527196 3:526658 4:526120 5:524554 6:524016 7:523478 8:522940 9:522402 10:521864 11:520812 12:519760 13:518708 14:515086 15:514548 16:511954 17:510388 18:508308 19:505200 20:501578 21:501040 22:497418 23:493796 24:492230 25:491692 26:488070 27:484448 28:481340 29:479774 30:478722 31:475100 32:473020 33:469398 34:468346 35:465752 36:465214 37:462106 38:458998 39:457946 40:454324 41:451216 42:448108 43:445000 44:442920 45:439298 46:437218 47:433596 48:433058 49:430464 50:427356 51:426304 52:422682 53:419574 54:416466 55:413358 56:410250 57:408684 58:408146 59:404524 60:403986 61:401392 
1.1689453125 1:431386 2:428792 3:428254 4:425660 5:424094 6:423556 7:419934 8:419396 9:417316 10:415750 11:415212 12:413132 13:411566 14:410514 15:407920 16:406868 17:403760 18:401166 19:399600 20:399062 21:396982 22:395416 23:393850 24:391256 25:388148 26:387096 27:385016 28:383964 29:381884 30:379804 31:376182 32:375644 33:374078 34:370456 35:369404 36:368866 37:366786 38:365220 39:364682 40:362602 41:361550 42:359470 43:357390 44:355310 45:353230 46:349608 47:347528 48:345448 49:343368 50:341288 51:340750 52:337128 53:336590 54:332968 55:330374 56:329322 57:327242 58:326190 59:323596 60:319974 61:319436 
1.1689453125 1:470772 2:469206 3:468668 4:468130 5:467592 6:467054 7:463432 8:461866 9:458758 10:455650 11:455112 12:451490 13:447868 14:447330 15:443708 16:440086 17:439548 18:435926 19:432304 20:430738 21:427630 22:426578 23:422956 24:419334 25:417768 26:415174 27:414122 28:413584 29:410476 30:409938 31:406830 32:403722 33:400614 34:397506 35:395426 36:391804 37:391266 38:388158 39:385050 40:382970 41:379348 42:375726 43:372104 44:368482 45:364860 46:364322 47:362756 48:362218 49:360138 50:359600 51:359062 52:358524 53:355930 54:355392 55:351770 56:348662 57:345554 58:345016 59:341394 60:337772 61:335178 
1.1689453125 1:342314 2:341776 3:340210 4:339672 5:339134 6:338596 7:338058 8:334436 9:331328 10:327706 11:327168 12:326116 13:325064 14:322470 15:320390 16:316314 17:312692 18:309070 19:308532 20:307994 21:304372 22:303834 23:303296 24:302758 25:302220 26:298598 27:294976 28:292896 29:289274 30:285652 31:284600 32:280978 33:277356 34:273734 35:270112 36:267518 37:266466 38:266382 39:262306 40:258684 41:255062 42:254524 43:250902 44:250364 45:246742 46:243120 47:239498 48:235876 49:235338 50:231716 51:228094 52:224472 53:220850 54:220312 55:216690 56:213068 57:209446 58:208908 59:205286 60:204748 61:201126 
1.1689453125 1:379848 2:379310 3:376716 4:376178 5:375126 6:371504 7:367882 8:364260 9:363208 10:359586 11:355964 12:355426 13:351804 14:351266 15:347644 16:344022 17:342970 18:341918 19:341380 20:339814 21:338248 22:336682 23:335116 24:332008 25:328900 26:325792 27:322684 28:319576 29:318010 30:316444 31:313336 32:310228 33:308662 34:307096 35:306044 36:302422 37:301884 38:301346 39:297724 40:297186 41:293564 42:293026 43:289404 44:285782 45:284730 46:281108 47:278000 48:276948 49:273326 50:272788 51:269166 52:265544 53:261922 54:258300 55:255192 56:254654 57:251032 58:250494 59:246872 60:243250 61:242712 
1.1689453125 1:409344 2:408806 3:407754 4:407216 5:406678 6:406140 7:405602 8:405064 9:404526 10:400904 11:399306 12:395202 13:394664 14:391042 15:387420 16:383798 17:380176 18:379638 19:376016 20:375478 21:371856 22:370290 23:369752 24:366130 25:362508 26:358886 27:357320 28:355240 29:352646 30:349538 31:346430 32:344864 33:342270 34:340158 35:336054 36:335516 37:332408 38:329300 39:327734 40:324112 41:323574 42:319952 43:319414 44:315792 45:311688 46:311150 47:310612 48:310074 49:306966 50:306428 51:305890 52:305352 53:302758 54:302220 55:298598 56:294976 57:294438 58:290816 59:290278 60:286656 61:286118 
1.1689453125 1:392214 2:391676 3:389596 4:389058 5:388520 6:387982 7:387444 8:386906 9:386368 10:384288 11:383750 12:380128 13:376506 14:372884 15:369262 16:368724 17:365616 18:365078 19:361456 20:357834 21:357296 22:353674 23:350052 24:349514 25:345892 26:342270 27:338166 28:337628 29:337090 30:336038 31:332930 32:331364 33:328770 34:328232 35:326666 36:325100 37:321992 38:320394 39:316290 40:313696 41:309592 42:306998 43:306460 44:305408 45:303842 46:299738 47:298686 48:295578 49:295040 50:294502 51:293964 52:290342 53:286238 54:282616 55:278994 56:275372 57:274834 58:271212 59:267590 60:263968 61:260346 
1.1689453125 1:393082 2:390488 3:389950 4:389412 5:388360 6:384738 7:381116 8:379550 9:379012 10:375390 11:371768 12:368146 13:367608 14:363986 15:360364 16:359826 17:356204 18:352582 19:351016 20:350478 21:346856 22:343234 23:340640 24:337018 25:335966 26:334400 27:331292 28:328184 29:326618 30:325052 31:323486 32:320378 33:317270 34:314162 35:312596 36:308974 37:305352 38:302758 39:299136 40:297570 41:297032 42:295980 43:292358 44:291820 45:291282 46:288174 47:287636 48:284014 49:283476 50:279854 51:276232 52:275180 53:271558 54:267936 55:267398 56:263776 57:260154 58:259616 59:255994 60:252372 61:251320 
1.1689453125 1:381220 2:379140 3:378602 4:378064 5:376498 6:373904 7:370796 8:370258 9:369720 10:366098 11:362990 12:361424 13:359858 14:358292 15:356726 16:352622 17:349000 18:347434 19:345868 20:343242 21:339138 22:338600 23:337548 24:335982 25:334384 26:330280 27:327172 28:326634 29:324040 30:320932 31:317824 32:316226 33:312122 34:311584 35:310018 36:308452 37:306886 38:305320 39:302212 40:301674 41:298052 42:297514 43:293892 44:290270 45:287162 46:286624 47:285572 48:285034 49:284496 50:283958 51:283420 52:282882 53:279774 54:279236 55:278698 56:275076 57:274538 58:270916 59:267294 60:264668 61:260564 
1.1689453125 1:448614 2:446534 3:445996 4:445458 5:444920 6:444382 7:442816 8:442278 9:438656 10:438118 11:435010 12:434472 13:433934 14:433396 15:430288 16:429750 17:429212 18:427646 19:427108 20:426570 21:422948 22:422410 23:418788 24:415166 25:414628 26:411006 27:407384 28:403762 29:400140 30:399088 31:395466 32:391362 33:388254 34:384632 35:381010 36:377902 37:377364 38:376826 39:374232 40:373694 41:372642 42:372104 43:371566 44:368458 45:367920 46:367382 47:366844 48:366306 49:365768 50:363174 51:360066 52:356958 53:356420 54:352798 55:349176 56:348638 57:345016 58:344478 59:340856 60:336752 61:334158 
1.1689453125 1:387514 2:385434 3:384896 4:384358 5:383820 6:382768 7:382230 8:380150 9:376528 10:373420 11:371340 12:367718 13:365124 14:364586 15:361992 16:360940 17:360402 18:356780 19:356242 20:353648 21:352082 22:349488 23:345866 24:342758 25:339650 26:338084 27:337546 28:333924 29:330302 30:328736 31:327684 32:324062 33:320440 34:316818 35:315252 36:312144 37:310578 38:309012 39:306418 40:302796 41:299174 42:297094 43:293472 44:292934 45:291882 46:288774 47:288236 48:287698 49:286132 50:285594 51:283514 52:282976 53:282438 54:281900 55:280334 56:277226 57:275146 58:271524 59:268930 60:268392 61:266312 
1.1689453125 1:384474 2:381880 3:381342 4:380290 5:379238 6:378700 7:377648 8:374026 9:370404 10:367810 11:364188 12:360566 13:357458 14:353836 15:350214 16:346592 17:342970 18:339862 19:339324 20:335702 21:332080 22:328458 23:327920 24:326868 25:323246 26:319624 27:316002 28:312380 29:308758 30:306164 31:302542 32:298920 33:298382 34:294760 35:294222 36:290600 37:286978 38:283356 39:282304 40:278682 41:278144 42:277092 43:276554 44:275502 45:273936 46:270314 47:266692 48:265126 49:264588 50:260966 51:257344 52:256806 53:253184 54:249562 55:247996 56:244374 57:240752 58:237644 59:236078 60:232456 61:231918 
1.1689453125 1:387044 2:384450 3:383912 4:382860 5:379752 6:376644 7:373536 8:370428 9:367320 10:364212 11:361104 12:357996 13:354888 14:353322 15:351756 16:348648 17:345540 18:344488 19:340866 20:338786 21:336192 22:332570 23:331004 24:329438 25:327872 26:326306 27:323198 28:321632 29:320066 30:316958 31:313850 32:310228 33:306606 34:302984 35:299362 36:298824 37:295202 38:291580 39:290014 40:289476 41:288938 42:287886 43:287348 44:283726 45:283188 46:281622 47:280056 48:278490 49:275382 50:273816 51:272250 52:270684 53:269118 54:265496 55:263930 56:262364 57:259256 58:255634 59:252012 60:248390 61:244768 
1.1689453125 1:344978 2:342384 3:341846 4:340794 5:337172 6:333550 7:331984 8:331446 9:327824 10:324202 11:323664 12:320042 13:316420 14:312798 15:309176 16:305554 17:302446 18:301908 19:298286 20:294664 21:291042 22:290504 23:289452 24:285830 25:283236 26:282698 27:279076 28:278538 29:274916 30:274378 31:270756 32:270218 33:266596 34:262974 35:259352 36:255730 37:254678 38:251056 39:250518 40:249980 41:248928 42:247362 43:244768 44:241146 45:238552 46:234930 47:231822 48:230256 49:227148 50:226610 51:222988 52:222450 53:218828 54:218290 55:214668 56:211046 57:207938 58:204316 59:200694 60:197072 61:193450 
1.1689453125 1:297441 2:294847 3:294309 4:293257 5:290663 6:290125 7:286503 8:282881 9:279773 10:276151 11:272529 12:268907 13:268369 14:267831 15:266779 16:263157 17:262619 18:261053 19:260001 20:256379 21:255327 22:251705 23:250653 24:247031 25:243409 26:242357 27:238735 28:237683 29:234061 30:233009 31:229387 32:225765 33:224713 34:221091 35:220553 36:219501 37:216907 38:214313 39:210691 40:207069 41:203447 42:202909 43:199287 44:195665 45:195127 46:191505 47:187883 48:185289 49:181667 50:178559 51:178021 52:174399 53:170777 54:167155 55:166617 56:149458 57:89272 58:88734 59:87682 60:84060 61:82494 
1.1689453125 1:380290 2:377696 3:377158 4:374564 5:371970 6:368348 7:367810 8:364188 9:363650 10:360028 11:356406 12:352784 13:349162 14:345540 15:341918 16:338810 17:338272 18:334650 19:331028 20:327406 21:326868 22:325302 23:324250 24:320628 25:317006 26:315954 27:312332 28:311280 29:307658 30:306606 31:302984 32:302446 33:298824 34:295202 35:291580 36:287958 37:286906 38:283284 39:282746 40:282208 41:281156 42:280618 43:276996 44:273374 45:269752 46:266130 47:264564 48:261456 49:260918 50:257296 51:256758 52:253136 53:252598 54:248976 55:245354 56:242246 57:238624 58:235002 59:231380 60:230842 61:230304 
1.1689453125 1:430162 2:427568 3:427030 4:426492 5:425954 6:425416 7:422822 8:421256 9:419690 10:417096 11:413474 12:410366 13:407258 14:404150 15:402584 16:398962 17:395340 18:391718 19:388096 20:384988 21:384450 22:380828 23:380290 24:376668 25:373046 26:370966 27:367858 28:364750 29:361642 30:358534 31:356968 32:353860 33:350752 34:349186 35:347620 36:344512 37:340890 38:337782 39:337244 40:333622 41:333084 42:329462 43:328924 44:325302 45:321680 46:320628 47:317006 48:316468 49:315416 50:312822 51:309714 52:308148 53:306582 54:305016 55:303450 56:301884 57:300318 58:298752 59:297186 60:295620 61:294054 
1.1689453125 1:466506 2:464426 3:463888 4:463350 5:462812 6:461760 7:461222 8:457600 9:457062 10:453440 11:452902 12:452364 13:451826 14:448718 15:448180 16:447642 17:446590 18:446052 19:445514 20:444976 21:444438 22:443900 23:440792 24:440254 25:439716 26:437122 27:434528 28:430906 29:427798 30:424690 31:421068 32:417446 33:415880 34:414314 35:413776 36:410154 37:406532 38:404966 39:401344 40:397722 41:397184 42:394076 43:390454 44:387860 45:385266 46:384728 47:381106 48:380568 49:377460 50:375380 51:371758 52:368650 53:365542 54:362434 55:360868 56:357246 57:354652 58:354114 59:351006 60:347898 61:344790 
1.1689453125 1:416870 2:414276 3:413738 4:411144 5:409578 6:408012 7:406446 8:404880 9:403314 10:401748 11:400182 12:398616 13:397050 14:395484 15:393918 16:392352 17:391814 18:388192 19:384570 20:380948 21:377326 22:375760 23:373166 24:369544 25:365922 26:364870 27:361248 28:360710 29:359658 30:356036 31:355498 32:351876 33:351338 34:347716 35:344094 36:340472 37:337878 38:334256 39:332690 40:329068 41:325446 42:321824 43:321286 44:317664 45:317126 46:313504 47:309882 48:306260 49:305208 50:304670 51:304132 52:301538 53:298430 54:296864 55:295298 56:293732 57:292166 58:290600 59:289034 60:287468 61:285902 
1.1689453125 1:358438 2:357386 3:355820 4:355282 5:353716 6:350094 7:348528 8:347990 9:344368 10:343830 11:340208 12:336586 13:336048 14:332426 15:331888 16:328266 17:327728 18:324106 19:320484 20:318918 21:317352 22:313730 23:313192 24:309570 25:305948 26:302840 27:302302 28:301250 29:297628 30:297090 31:294496 32:290874 33:287252 34:283630 35:283092 36:279470 37:275848 38:272226 39:268604 40:268066 41:264444 42:260822 43:259256 44:257690 45:254582 46:251988 47:248366 48:245258 49:242664 50:239042 51:238504 52:234882 53:231260 54:227638 55:224016 56:222964 57:219342 58:216234 59:214668 60:214130 61:210508 
1.1689453125 1:359780 2:359242 3:358704 4:357138 5:356600 6:356062 7:355524 8:354986 9:351878 10:348256 11:347204 12:346152 13:342530 14:341992 15:338370 16:337832 17:334210 18:333672 19:330050 20:329512 21:325890 22:325352 23:321730 24:318108 25:315514 26:314976 27:311354 28:307732 29:304110 30:303572 31:303034 32:301468 33:297846 34:294224 35:293172 36:289550 37:285928 38:285390 39:281768 40:278146 41:276580 42:276042 43:272420 44:271882 45:268260 46:267722 47:264100 48:260478 49:259940 50:259402 51:258864 52:257298 53:256760 54:253138 55:252600 56:248978 57:246898 58:243276 59:241710 60:237634 61:234012 
1.1689453125 1:377302 2:374708 3:374170 4:372090 5:370524 6:369472 7:365850 8:362742 9:359634 10:358068 11:356502 12:353394 13:351828 14:351290 15:347668 16:344046 17:340424 18:336802 19:335236 20:333670 21:330048 22:329510 23:325888 24:322266 25:321214 26:320162 27:317568 28:316002 29:314436 30:312870 31:309762 32:306654 33:303546 34:302494 35:298872 36:295250 37:294712 38:291090 39:290552 40:286930 41:283308 42:282256 43:278634 44:278096 45:277558 46:273936 47:271342 48:267720 49:264098 50:260476 51:256854 52:255288 53:254750 54:251128 55:250590 56:246968 57:246430 58:242808 59:239186 60:235564 61:231942 
1.1689453125 1:409136 2:406542 3:406004 4:404952 5:403386 6:402334 7:398712 8:397146 9:395580 10:394014 11:392448 12:390882 13:387774 14:384666 15:384128 16:380506 17:379968 18:376346 19:375808 20:372186 21:368564 22:366998 23:363890 24:363352 25:359730 26:359192 27:355570 28:351948 29:351410 30:347788 31:347250 32:343628 33:340006 34:339468 35:335846 36:335308 37:331686 38:331148 39:327526 40:323904 41:320282 42:316660 43:313038 44:309416 45:306822 46:305770 47:302662 48:301096 49:299530 50:297964 51:294856 52:293290 53:291724 54:290158 55:288592 56:287026 57:285460 58:283894 59:282328 60:279220 61:277654 
1.1689453125 1:458608 2:456014 3:455476 4:452882 5:451316 6:449750 7:448184 8:446618 9:443510 10:439888 11:437294 12:433672 13:432620 14:428998 15:427432 16:426894 17:423272 18:419650 19:416542 20:414976 21:413410 22:410302 23:408736 24:407170 25:405604 26:404038 27:402472 28:400906 29:400368 30:399316 31:397750 32:394642 33:393076 34:391510 35:389944 36:387350 37:385784 38:383704 39:382138 40:380572 41:379006 42:377440 43:374332 44:372766 45:371200 46:369634 47:368068 48:365474 49:363908 50:362342 51:360776 52:357668 53:355074 54:353508 55:351942 56:348834 57:348296 58:346216 59:343622 60:342570 61:342032 
1.1689453125 1:408238 2:407700 3:405106 4:404568 5:403516 6:402978 7:401926 8:401388 9:400336 10:396714 11:393092 12:390498 13:386876 14:383254 15:380146 16:379608 17:375986 18:372364 19:368742 20:365120 21:362012 22:358390 23:354768 24:351146 25:350608 26:348014 27:346962 28:343340 29:342288 30:338666 31:337614 32:333992 33:330370 34:326748 35:325696 36:322074 37:321022 38:317400 39:316348 40:312726 41:310132 42:309594 43:305972 44:302350 45:298728 46:295106 47:294054 48:290432 49:289894 50:289356 51:288304 52:287252 53:286200 54:282578 55:281526 56:277904 57:275310 58:274772 59:271150 60:267528 61:263906 
1.1689453125 1:393346 2:392808 3:391242 4:390704 5:390166 6:389628 7:389090 8:385982 9:382360 10:381308 11:380256 12:376634 13:373012 14:372474 15:368852 16:368314 17:364692 18:361070 19:357448 20:356910 21:353288 22:352750 23:350156 24:349618 25:345996 26:342374 27:338752 28:336158 29:335620 30:331998 31:328376 32:327324 33:326786 34:323164 35:319542 36:315920 37:315382 38:313302 39:309680 40:306058 41:302436 42:301898 43:298276 44:294654 45:291032 46:290494 47:289956 48:286334 49:285796 50:285258 51:284720 52:284182 53:282616 54:282078 55:281540 56:277918 57:276866 58:274786 59:271164 60:268570 61:268032 
1.1689453125 1:368804 2:368266 3:366700 4:366162 5:365624 6:365086 7:361978 8:358356 9:356790 10:356252 11:352630 12:349008 13:345386 14:341764 15:341226 16:337604 17:333982 18:330360 19:327766 20:327228 21:323606 22:319984 23:316362 24:315824 25:315286 26:311664 27:311126 28:310588 29:310050 30:308998 31:305376 32:301754 33:300702 34:298108 35:297056 36:296518 37:292896 38:290302 39:286680 40:283058 41:279436 42:278898 43:278360 44:276280 45:274714 46:274176 47:270554 48:266932 49:264338 50:260716 51:257094 52:253472 53:252934 54:249312 55:248774 56:245152 57:241530 58:239964 59:236342 60:235290 61:231668 
1.1689453125 1:392496 2:391958 3:390392 4:389854 5:389316 6:388778 7:388240 8:387702 9:386650 10:386112 11:382490 12:378868 13:375246 14:374708 15:371600 16:371062 17:367440 18:366902 19:363280 20:362742 21:359120 22:356526 23:352904 24:349282 25:345660 26:345122 27:344584 28:344046 29:340424 30:336802 31:336264 32:332642 33:329020 34:325398 35:324860 36:324322 37:320700 38:317078 39:313456 40:312918 41:309296 42:305674 43:302052 44:301514 45:297892 46:297354 47:296816 48:296278 49:294712 50:294174 51:293636 52:293098 53:289476 54:285854 55:285316 56:284778 57:283726 58:280104 59:276482 60:272860 61:268784 
1.1689453125 1:407940 2:405346 3:404808 4:401700 5:398592 6:397026 7:393918 8:392352 9:389244 10:387678 11:384570 12:383004 13:381438 14:377816 15:377278 16:373656 17:373118 18:369496 19:365874 20:362252 21:358630 22:358092 23:354470 24:353932 25:350310 26:346688 27:343580 28:339958 29:336336 30:332714 31:331148 32:329582 33:326474 34:324908 35:323342 36:321776 37:320210 38:317102 39:313994 40:310886 41:307778 42:304670 43:303104 44:302052 45:298430 46:297378 47:296840 48:294760 49:293194 50:292656 51:291604 52:287982 53:287444 54:283822 55:282256 56:278634 57:275526 58:271904 59:268282 60:264660 61:264122 
1.1689453125 1:376644 2:376106 3:373512 4:372974 5:371408 6:367786 7:366734 8:363112 9:362060 10:358438 11:357386 12:353764 13:350142 14:349090 15:345468 16:344416 17:340794 18:339742 19:336120 20:333012 21:331960 22:328338 23:324716 24:323664 25:320042 26:316420 27:312798 28:312260 29:308638 30:308100 31:304478 32:303940 33:300318 34:296696 35:293588 36:289966 37:286344 38:282722 39:281156 40:280618 41:279566 42:275944 43:275406 44:272812 45:269704 46:266596 47:263488 48:260894 49:257272 50:254164 51:251056 52:247948 53:244840 54:241732 55:240166 56:238600 57:235492 58:233926 59:232360 60:229252 61:226144 
1.1689453125 1:466510 2:465972 3:463892 4:463354 5:461274 6:459708 7:458142 8:456576 9:455010 10:453444 11:451878 12:450312 13:448746 14:447180 15:445614 16:444048 17:442482 18:440916 19:439350 20:437784 21:436218 22:434652 23:433086 24:431520 25:429954 26:428388 27:426822 28:425256 29:423690 30:422124 31:420558 32:418992 33:417426 34:415860 35:414294 36:412728 37:411162 38:408568 39:408030 40:407492 41:405412 42:402818 43:401252 44:398144 45:397606 46:396554 47:396016 48:395478 49:392884 50:391318 51:389752 52:388186 53:386620 54:385054 55:383488 56:381922 57:380356 58:378790 59:377224 60:375658 61:372550 
1.1689453125 1:416760 2:414680 3:414142 4:413604 5:413066 6:412014 7:409420 8:406826 9:406288 10:403694 11:403156 12:400562 13:397968 14:395374 15:394836 16:392242 17:391704 18:391166 19:388572 20:385978 21:383384 22:380790 23:378196 24:377658 25:377120 26:376068 27:375530 28:372936 29:372398 30:368776 31:368238 32:365644 33:365106 34:364054 35:363516 36:362978 37:362440 38:361902 39:361364 40:359798 41:359260 42:357180 43:356642 44:354562 45:351968 46:351430 47:348836 48:348298 49:345704 50:345166 51:341544 52:341006 53:339440 54:336846 55:334252 56:333714 57:331120 58:330582 59:327474 60:324880 61:322286 
1.1689453125 1:470794 2:470256 3:468690 4:468152 5:467614 6:467076 7:466538 8:463430 9:459808 10:459270 11:455648 12:455110 13:451488 14:450950 15:447328 16:443706 17:440084 18:439546 19:436952 20:436414 21:432792 22:429170 23:425548 24:425010 25:424472 26:423934 27:420312 28:416690 29:415638 30:412016 31:411478 32:407856 33:404234 34:403182 35:399560 36:395938 37:392316 38:391778 39:391240 40:387618 41:387080 42:383458 43:379836 44:377756 45:377218 46:373596 47:369974 48:369436 49:365814 50:365276 51:361654 52:361116 53:360578 54:360040 55:359502 56:356908 57:353286 58:349664 59:349126 60:348074 61:344452 
1.1689453125 1:478822 2:478284 3:475690 4:475152 5:472558 6:470992 7:469426 8:467860 9:466294 10:464728 11:463162 12:461596 13:460030 14:458464 15:456898 16:455332 17:453766 18:452200 19:450634 20:449068 21:447502 22:445936 23:444370 24:442804 25:441238 26:439672 27:438106 28:436540 29:434974 30:433408 31:431842 32:430276 33:428710 34:427144 35:425578 36:424012 37:420904 38:419338 39:418800 40:418262 41:415668 42:414102 43:412536 44:410970 45:407862 46:406296 47:404730 48:401622 49:400056 50:397462 51:394868 52:393302 53:390194 54:388628 55:387062 56:383954 57:382388 58:380308 59:378742 60:377176 61:375610 
1.1689453125 1:374524 2:372444 3:371906 4:371368 5:370830 6:370292 7:369240 8:366646 9:364052 10:363514 11:360920 12:360382 13:357788 14:355194 15:352600 16:351548 17:348954 18:348416 19:345822 20:345284 21:342690 22:342152 23:339558 24:336964 25:334370 26:333318 27:330724 28:330186 29:326564 30:322942 31:320862 32:320324 33:317730 34:317192 35:316654 36:316116 37:313522 38:312470 39:309876 40:307282 41:304688 42:304150 43:301556 44:301018 45:298424 46:295830 47:292722 48:292184 49:289590 50:288538 51:284916 52:284378 53:281784 54:281246 55:280194 56:279656 57:279118 58:278580 59:278042 60:275448 61:272854 
1.1689453125 1:327388 2:324794 3:324256 4:294174 5:293636 6:290014 7:289476 8:288938 9:287886 10:286834 11:283726 12:281132 13:277510 14:274916 15:274378 16:270756 17:267134 18:263512 19:259890 20:256268 21:252646 22:249538 23:247972 24:247434 25:243812 26:243274 27:239652 28:236030 29:234464 30:233412 31:229790 32:228738 33:225116 34:222008 35:218900 36:215792 37:212684 38:209576 39:206468 40:203360 41:200252 42:197144 43:196092 44:192470 45:189876 46:186254 47:183146 48:180038 49:177444 50:173822 51:170714 52:167606 53:164498 54:161390 55:158282 56:156716 57:153608 58:150500 59:148934 60:148396 61:144774 
1.1689453125 1:464430 2:462350 3:461812 4:459732 5:456624 6:455058 7:453492 8:451926 9:450360 10:448794 11:447228 12:445662 13:444096 14:442530 15:440964 16:437856 17:434748 18:431640 19:428532 20:425424 21:423858 22:420236 23:418670 24:417104 25:415538 26:413972 27:412406 28:409812 29:407218 30:406680 31:405114 32:402006 33:400440 34:398874 35:397308 36:395742 37:392634 38:389526 39:387960 40:387422 41:383800 42:382234 43:379126 44:377560 45:374452 46:372372 47:370806 48:369240 49:367674 50:365080 51:363514 52:361434 53:358840 54:358302 55:356736 56:354142 57:353604 58:352552 59:352014 60:349420 61:347854 
1.1689453125 1:338547 2:335953 3:335415 4:332821 5:273326 6:269704 7:268652 8:265030 9:264492 10:263954 11:262902 12:260308 13:257714 14:254092 15:253040 16:249418 17:245796 18:242174 19:241636 20:238014 21:237476 22:233854 23:233316 24:229694 25:226072 26:222964 27:219342 28:215720 29:212098 30:211560 31:208966 32:205344 33:201722 34:201184 35:197562 36:193940 37:190318 38:186696 39:186158 40:182536 41:178914 42:175292 43:171670 44:170104 45:166482 46:162860 47:162322 48:158700 49:155078 50:151456 51:147834 52:147296 53:143674 54:140052 55:136430 56:132808 57:132270 58:128648 59:125026 60:124488 61:120866 
1.1689453125 1:415674 2:415136 3:413570 4:413032 5:412494 6:411956 7:411418 8:409338 9:407772 10:404150 11:400528 12:396906 13:394826 14:392746 15:392208 16:388586 17:387534 18:384426 19:380804 20:377696 21:377158 22:373536 23:369914 24:366292 25:362670 26:362132 27:361594 28:361056 29:357434 30:355354 31:353274 32:352736 33:349114 34:347034 35:344954 36:340878 37:337256 38:333634 39:333096 40:329474 41:325852 42:322230 43:321692 44:321154 45:318046 46:317508 47:316970 48:316432 49:315380 50:313814 51:312248 52:309654 53:306546 54:305494 55:301872 56:298250 57:295656 58:295118 59:291496 60:287874 61:286822 
1.1689453125 1:541780 2:541242 3:539676 4:539138 5:537058 6:536520 7:535982 8:535444 9:532850 10:530770 11:527148 12:526610 13:524016 14:521936 15:518314 16:515720 17:515182 18:511560 19:508966 20:506372 21:505834 22:503240 23:500646 24:500108 25:497514 26:494920 27:492326 28:491788 29:489194 30:488142 31:484520 32:481412 33:478304 34:476738 35:475172 36:474120 37:470498 38:467390 39:464282 40:460660 41:457038 42:456500 43:452878 44:449256 45:447690 46:447152 47:443530 48:439908 49:438342 50:436776 51:433668 52:432102 53:428480 54:425372 55:421750 56:418642 57:415534 58:413454 59:409832 60:407238 61:406700 
1.1689453125 1:465674 2:465136 3:462542 4:462004 5:461466 6:460928 7:460390 8:458824 9:457258 10:455692 11:455154 12:454102 13:450994 14:449428 15:446320 16:444754 17:443188 18:441622 19:440056 20:436948 21:435382 22:433816 23:432250 24:429142 25:427576 26:426010 27:424444 28:421336 29:419770 30:418204 31:416638 32:415072 33:413506 34:410398 35:408832 36:407266 37:405700 38:404134 39:402568 40:399974 41:399436 42:398898 43:396818 44:394224 45:392658 46:391092 47:389526 48:388988 49:387936 50:385342 51:383776 52:382210 53:380644 54:379078 55:377512 56:374404 57:372838 58:371272 59:369706 60:368140 61:366574 
1.1689453125 1:387238 2:386700 3:385134 4:384596 5:384058 6:383520 7:380412 8:376790 9:376252 10:375714 11:372092 12:368470 13:367932 14:367394 15:363772 16:361692 17:358070 18:357532 19:354938 20:351316 21:348722 22:347670 23:347132 24:343510 25:339888 26:336266 27:335728 28:335190 29:331568 30:331030 31:330492 32:329954 33:328902 34:325280 35:321658 36:321120 37:320068 38:319016 39:315394 40:311772 41:310720 42:307098 43:303476 44:302424 45:301886 46:298264 47:296184 48:295646 49:292024 50:291486 51:289406 52:288868 53:285246 54:284708 55:281086 56:277464 57:276926 58:273304 59:272766 60:269144 61:265522 
1.1689453125 1:380352 2:379814 3:378248 4:377710 5:377172 6:376634 7:376096 8:372988 9:369366 10:368314 11:367262 12:363640 13:363102 14:359480 15:358942 16:355320 17:354782 18:350706 19:347084 20:343462 21:339840 22:339302 23:336708 24:333086 25:329464 26:327898 27:324276 28:323738 29:321658 30:318036 31:314414 32:310792 33:307170 34:304576 35:301982 36:301444 37:298850 38:295228 39:294690 40:291068 41:290530 42:289992 43:286370 44:285832 45:285294 46:284756 47:284218 48:283680 49:282114 50:281576 51:277954 52:274332 53:273280 54:272228 55:268606 56:264984 57:264446 58:260824 59:260286 60:256210 61:252588 
1.1689453125 1:324838 2:322758 3:322220 4:321682 5:321144 6:320606 7:320068 8:319016 9:317964 10:316912 11:315860 12:314808 13:314270 14:313732 15:313194 16:312142 17:311090 18:310038 19:308986 20:307934 21:306882 22:305830 23:305292 24:304754 25:304216 26:303678 27:302626 28:301574 29:300522 30:299470 31:298418 32:297366 33:296314 34:295776 35:295238 36:294700 37:294162 38:293110 39:292058 40:291006 41:289954 42:288902 43:287850 44:287312 45:286260 46:285208 47:284670 48:281562 49:277940 50:276888 51:276350 52:273756 53:273218 54:272680 55:271628 56:270576 57:269524 58:268472 59:267420 60:266368 61:265316 
1.1689453125 1:386460 2:384380 3:383842 4:383304 5:382766 6:382228 7:380148 8:377040 9:373932 10:371338 11:370800 12:367692 13:364584 14:362504 15:358882 16:358344 17:357292 18:356754 19:353132 20:350538 21:347944 22:344322 23:340700 24:338106 25:337568 26:337030 27:333922 28:330300 29:326678 30:323056 31:319434 32:317868 33:315788 34:312166 35:310600 36:310062 37:306440 38:302818 39:301252 40:298144 41:297092 42:293470 43:290362 44:289310 45:285688 46:285150 47:284612 48:284074 49:280966 50:280428 51:277260 52:273184 53:270530 54:266454 55:263346 56:260238 57:257130 58:253508 59:252970 60:250376 61:247268 
1.1689453125 1:303692 2:303154 3:302102 4:301564 5:301026 6:300488 7:299950 8:298898 9:298360 10:297822 11:296770 12:295718 13:294666 14:293614 15:292562 16:291510 17:290458 18:289920 19:289382 20:286788 21:286250 22:285198 23:284146 24:283094 25:282042 26:280990 27:279938 28:278886 29:278348 30:277810 31:277272 32:276734 33:275682 34:274630 35:273578 36:272526 37:271474 38:270422 39:269884 40:269346 41:268808 42:268270 43:267218 44:266166 45:265114 46:264062 47:263010 48:261958 49:260906 50:260368 51:259830 52:259292 53:258240 54:257188 55:256136 56:255084 57:254032 58:253494 59:252956 60:252418 61:251880 
1.1689453125 1:303526 2:300932 3:300394 4:299856 5:298804 6:297238 7:295672 8:294620 9:290998 10:289432 11:287866 12:286300 13:284734 14:283168 15:281602 16:280036 17:278470 18:276904 19:275338 20:273772 21:272206 22:270640 23:267532 24:264938 25:261316 26:259750 27:256642 28:255076 29:251968 30:250916 31:247294 32:246756 33:245704 34:242082 35:241544 36:241006 37:237898 38:236332 39:234766 40:233200 41:231634 42:228526 43:225418 44:223852 45:222286 46:220720 47:219154 48:217588 49:216022 50:212914 51:210320 52:206698 53:205132 54:203566 55:202000 56:200434 57:198868 58:197302 59:195736 60:194170 61:192604 
1.1689453125 1:381068 2:378474 3:377936 4:377398 5:376346 6:375808 7:374242 8:372676 9:371110 10:369544 11:367978 12:364870 13:363304 14:359682 15:356060 16:352438 17:348816 18:348278 19:344656 20:343090 21:339982 22:336874 23:333766 24:330658 25:327550 26:325984 27:324418 28:322852 29:321286 30:318178 31:316612 32:316074 33:312452 34:308830 35:308292 36:304670 37:301048 38:299996 39:299458 40:298920 41:295812 42:294246 43:293708 44:290600 45:289034 46:287468 47:285902 48:284850 49:281228 50:280176 51:276554 52:272932 53:269824 54:266202 55:265664 56:262042 57:258420 58:257882 59:254260 60:250638 61:247016 
1.1689453125 1:426588 2:426050 3:423456 4:422918 5:422380 6:421328 7:418734 8:417168 9:414060 10:412494 11:410928 12:409362 13:407796 14:406230 15:404664 16:403098 17:401532 18:399966 19:396344 20:392722 21:389100 22:385478 23:383912 24:380804 25:380266 26:376644 27:373022 28:369400 29:368862 30:365754 31:362132 32:360566 33:359000 34:355892 35:354326 36:351218 37:349652 38:346544 39:344978 40:343412 41:342874 42:339252 43:335630 44:332008 45:328386 46:324764 47:321142 48:320090 49:316468 50:315930 51:315392 52:314854 53:313802 54:310180 55:309128 56:305506 57:303940 58:300832 59:299266 60:297700 61:296134 
1.1689453125 1:316066 2:315528 3:314476 4:313938 5:313400 6:312862 7:311810 8:310758 9:309706 10:308654 11:307602 12:307064 13:306526 14:305474 15:304422 16:303370 17:302318 18:301266 19:300214 20:299162 21:298624 22:298086 23:297548 24:296496 25:295444 26:294392 27:293340 28:292288 29:291236 30:290184 31:289646 32:289108 33:288570 34:288032 35:286980 36:285928 37:284876 38:283824 39:282772 40:281720 41:280668 42:280130 43:279592 44:279054 45:278002 46:277464 47:276926 48:275874 49:275336 50:274284 51:273232 52:272694 53:272156 54:271618 55:271080 56:270542 57:269490 58:268438 59:267386 60:266334 61:265282 
1.1689453125 1:394756 2:394218 3:392652 4:392114 5:391576 6:391038 7:390500 8:387906 9:384284 10:383746 11:383208 12:382156 13:378534 14:374912 15:371290 16:370752 17:370214 18:366592 19:362970 20:359348 21:355726 22:353132 23:353048 24:348972 25:345350 26:341728 27:341190 28:340652 29:337030 30:336492 31:332870 32:329248 33:328196 34:324574 35:320952 36:318358 37:314736 38:311114 39:307492 40:306954 41:303332 42:302794 43:299172 44:298634 45:295012 46:291390 47:290852 48:290314 49:289776 50:288210 51:287672 52:286620 53:282998 54:279376 55:278838 56:278300 57:277248 58:273626 59:270004 60:266382 61:265844 
1.1689453125 1:490876 2:490338 3:487744 4:487206 5:484612 6:484074 7:480452 8:476830 9:473722 10:470614 11:467506 12:464398 13:461290 14:458182 15:455074 16:451966 17:449372 18:445750 19:442642 20:440048 21:436426 22:433832 23:430210 24:429672 25:428620 26:427568 27:423946 28:423408 29:422870 30:422332 31:419224 32:415602 33:415064 34:411442 35:407820 36:404712 37:402118 38:401580 39:397958 40:394336 41:391228 42:387606 43:383984 44:382418 45:379824 46:376202 47:375150 48:371528 49:370476 50:366854 51:365802 52:364236 53:361642 54:358020 55:354912 56:351804 57:348696 58:347130 59:343508 60:339886 61:336778 
1.1689453125 1:351874 2:349794 3:349256 4:348718 5:348180 6:347642 7:344020 8:343482 9:339860 10:336238 11:332616 12:332078 13:328456 14:324834 15:321212 16:317590 17:316538 18:315486 19:314948 20:314410 21:313872 22:312820 23:311768 24:310716 25:309664 26:308612 27:307560 28:306508 29:305970 30:305432 31:304894 32:304356 33:303818 34:302766 35:301714 36:300662 37:297040 38:293418 39:289796 40:286174 41:282552 42:282014 43:281476 44:279396 45:275774 46:274722 47:273670 48:272618 49:271566 50:271028 51:270490 52:269952 53:269414 54:268362 55:267310 56:266258 57:265206 58:264154 59:263102 60:262564 61:261512 
1.1689453125 1:293889 2:292837 3:291271 4:290733 5:290195 6:289143 7:287577 8:286011 9:284445 10:282879 11:281313 12:278205 13:276639 14:275073 15:273507 16:271941 17:270375 18:268809 19:267243 20:265677 21:262569 22:259461 23:257895 24:256329 25:254763 26:251655 27:250089 28:203540 29:199918 30:199380 31:198328 32:197790 33:196224 34:194658 35:193092 36:191526 37:189960 38:188394 39:187342 40:185776 41:184210 42:182644 43:179536 44:177970 45:176404 46:174838 47:173272 48:170164 49:168598 50:167546 51:163924 52:162358 53:160792 54:159226 55:157660 56:154552 57:152986 58:149364 59:147798 60:144690 61:143124 
1.1689453125 1:334544 2:334006 3:333468 4:331902 5:331364 6:330826 7:330288 8:329750 9:327670 10:325590 11:321968 12:320402 13:316780 14:316242 15:312620 16:310026 17:309488 18:305866 19:302244 20:298622 21:295000 22:292406 23:291868 24:288246 25:287708 26:284086 27:280464 28:279926 29:279388 30:278850 31:275228 32:273148 33:272610 34:268988 35:265366 36:261744 37:259150 38:258612 39:254990 40:251368 41:248774 42:245152 43:244614 44:240992 45:240454 46:239916 47:239378 48:238840 49:237274 50:236736 51:235170 52:234632 53:233580 54:229958 55:225882 56:222260 57:221722 58:218100 59:214478 60:212398 61:208776 
1.1689453125 1:424288 2:423236 3:421670 4:421132 5:420594 6:420056 7:417462 8:416924 9:413302 10:409680 11:409142 12:406034 13:404468 14:403930 15:401850 16:401312 17:400774 18:397666 19:394044 20:390422 21:386800 22:383178 23:382126 24:379018 25:377452 26:375886 27:373292 28:369670 29:368104 30:364996 31:361374 32:357752 33:356186 34:354620 35:354082 36:353030 37:349408 38:348870 39:346276 40:343168 41:340060 42:338494 43:336928 44:333820 45:330712 46:327604 47:324496 48:321902 49:318280 50:316714 51:315662 52:315124 53:311502 54:307880 55:304258 56:300636 57:299584 58:295962 59:295424 60:294886 61:291264 
1.1689453125 1:437256 2:436204 3:434638 4:434100 5:433048 6:432510 7:428888 8:425266 9:423700 10:422134 11:418512 12:417974 13:414352 14:410730 15:409164 16:407598 17:406032 18:402924 19:399816 20:398764 21:395142 22:394090 23:390468 24:386846 25:384252 26:380630 27:380092 28:379554 29:378502 30:374880 31:371772 32:370206 33:368640 34:365532 35:364480 36:360858 37:359292 38:356184 39:353590 40:349968 41:346860 42:345294 43:344242 44:340620 45:337512 46:335946 47:334380 48:332814 49:331248 50:329682 51:328116 52:326550 53:324984 54:323418 55:321852 56:321314 57:320776 58:319724 59:319186 60:315564 61:312456 
1.1689453125 1:453738 2:453200 3:451120 4:450582 5:450044 6:447450 7:445884 8:444318 9:441210 10:439644 11:438078 12:436512 13:433404 14:430296 15:428730 16:425622 17:422514 18:419406 19:416298 20:413190 21:411564 22:407488 23:404380 24:401272 25:398164 26:395056 27:394518 28:393980 29:390872 30:389306 31:387226 32:384632 33:384094 34:383556 35:381990 36:380424 37:378858 38:377292 39:375726 40:372618 41:369510 42:367944 43:366378 44:363270 45:361704 46:360138 47:358572 48:357006 49:355440 50:353874 51:350766 52:348172 53:345064 54:341956 55:341358 56:337282 57:336744 58:334664 59:331556 60:329990 61:328424 
1.1689453125 1:380244 2:379706 3:378140 4:377602 5:377064 6:376526 7:375988 8:375450 9:371828 10:368206 11:367154 12:363532 13:359910 14:359372 15:355750 16:352128 17:351590 18:347968 19:344346 20:340724 21:338130 22:337592 23:333970 24:330348 25:326726 26:324646 27:321024 28:320486 29:317378 30:313756 31:313218 32:309596 33:309058 34:305436 35:301814 36:298192 37:294570 38:294032 39:290410 40:286788 41:283166 42:282628 43:279006 44:278468 45:277930 46:276364 47:272742 48:269120 49:265498 50:264960 51:262880 52:259772 53:259234 54:258696 55:257644 56:254022 57:250400 58:249348 59:246754 60:246216 61:242594 
1.1689453125 1:408324 2:407786 3:407248 4:405682 5:405144 6:404606 7:404068 8:400960 9:397338 10:396800 11:396262 12:395210 13:391588 14:387966 15:385886 16:385348 17:381726 18:378104 19:377566 20:373944 21:370322 22:367728 23:365134 24:364596 25:360974 26:360436 27:356814 28:353192 29:352654 30:352116 31:351578 32:347956 33:347418 34:346880 35:345828 36:342206 37:341154 38:340616 39:336994 40:333372 41:329750 42:328698 43:328160 44:324538 45:320916 46:320378 47:317784 48:316732 49:313110 50:309488 51:307408 52:306870 53:303248 54:302710 55:299088 56:298550 57:294928 58:294390 59:293852 60:292800 61:289178 
1.1689453125 1:364552 2:362472 3:361934 4:361396 5:360858 6:358778 7:355156 8:351534 9:350996 10:350458 11:349920 12:346298 13:345760 14:345222 15:343656 16:343118 17:342580 18:338958 19:338420 20:337882 21:294920 22:292326 23:291788 24:289194 25:286600 26:284006 27:281412 28:280874 29:278280 30:275686 31:273092 32:272554 33:272016 34:268394 35:264772 36:262692 37:262154 38:261616 39:260564 40:256942 41:256404 42:254838 43:234478 44:233940 45:231860 46:229780 47:227700 48:224592 49:220970 50:220432 51:216810 52:214216 53:212650 54:212112 55:208490 56:207952 57:204330 58:203278 59:202226 60:200660 61:198066 
1.1689453125 1:343478 2:341398 3:340860 4:340322 5:339784 6:337190 7:336138 8:335086 9:332492 10:331440 11:330388 12:329850 13:327256 14:326718 15:324124 16:323586 17:320992 18:317370 19:316832 20:316294 21:315756 22:312134 23:311596 24:309002 25:308464 26:307926 27:306874 28:304794 29:301172 30:300634 31:297012 32:296474 33:292852 34:292314 35:289720 36:289182 37:288130 38:285536 39:284484 40:283432 41:282380 42:281328 43:280276 44:279738 45:279200 46:275578 47:275040 48:271418 49:267796 50:267258 51:266720 52:263098 53:262560 54:260480 55:257886 56:255292 57:252698 58:250104 59:249566 60:249028 61:248490 
1.1689453125 1:399968 2:399430 3:397864 4:397326 5:396788 6:396250 7:395712 8:393118 9:389496 10:388958 11:385336 12:383256 13:379634 14:379096 15:375474 16:374936 17:371314 18:370776 19:367154 20:363532 21:359910 22:359372 23:356778 24:356240 25:352618 26:352080 27:348458 28:344836 29:344298 30:343760 31:343222 32:339600 33:339062 34:335440 35:331818 36:330766 37:326690 38:323068 39:319446 40:318908 41:316828 42:316290 43:312668 44:309046 45:305424 46:301802 47:298180 48:294558 49:294020 50:293482 51:292944 52:291378 53:290840 54:290302 55:289250 56:285628 57:282006 58:281468 59:280930 60:279878 61:276256 
1.1689453125 1:345880 2:343800 3:343262 4:342724 5:342186 6:341648 7:283012 8:282474 9:281936 10:281398 11:277776 12:277238 13:274644 14:272538 15:268462 16:264386 17:260310 18:256234 19:252158 20:248082 21:244006 22:239930 23:235854 24:233260 25:230666 26:230128 27:227020 28:224426 29:220804 30:219752 31:217158 32:213082 33:211636 34:208982 35:204906 36:202312 37:199718 38:197124 39:194530 40:191936 41:191398 42:187776 43:187238 44:184644 45:182050 46:179456 47:178404 48:177352 49:176300 50:175762 51:175224 52:172630 53:172092 54:171554 55:170502 56:169450 57:168398 58:167346 59:166294 60:165242 61:164190 
1.1689453125 1:321034 2:320496 3:318416 4:317878 5:317340 6:316802 7:313180 8:312128 9:308052 10:306486 11:304406 12:303868 13:302302 14:300222 15:299684 16:296062 17:292954 18:291902 19:287826 20:284204 21:281096 22:278502 23:276936 24:274856 25:272776 26:269154 27:265532 28:264994 29:264456 30:263918 31:263380 32:259758 33:259220 34:258168 35:257630 36:254008 37:249932 38:246310 39:242234 40:239126 41:238588 42:236508 43:232886 44:229264 45:225642 46:225104 47:224566 48:224482 49:220406 50:217298 51:216760 52:215708 53:214656 54:211034 55:209468 56:207388 57:205822 58:203742 59:202176 60:200096 61:199558 
1.1689453125 1:257682 2:239646 3:236024 4:232402 5:229808 6:229270 7:227190 8:226652 9:226114 10:225576 11:225038 12:224500 13:220878 14:220340 15:218774 16:218236 17:215642 18:215104 19:212510 20:209916 21:208864 22:207812 23:206760 24:205708 25:203114 26:202576 27:202038 28:201500 29:200448 30:197854 31:195260 32:194208 33:193156 34:190562 35:190024 36:187430 37:186892 38:184298 39:183760 40:181166 41:178572 42:175978 43:173384 44:172332 45:171794 46:171256 47:170718 48:168124 49:165530 50:162936 51:161884 52:160832 53:159780 54:158728 55:158190 56:155596 57:155058 58:152464 59:151926 60:149332 61:148280 
1.1689453125 1:342362 2:340282 3:339744 4:339206 5:338668 6:338130 7:337592 8:337054 9:336516 10:335464 11:334412 12:333360 13:332308 14:331256 15:330204 16:329152 17:328614 18:328076 19:327538 20:326486 21:325434 22:324382 23:323330 24:322278 25:321226 26:320688 27:320150 28:319612 29:318560 30:317508 31:316456 32:315404 33:314866 34:311244 35:307622 36:304000 37:300378 38:299840 39:299302 40:298764 41:298226 42:297688 43:295608 44:294556 45:293504 46:292452 47:291400 48:290862 49:289810 50:289272 51:288734 52:288196 53:287658 54:286606 55:285554 56:284502 57:283450 58:282398 59:281346 60:280294 61:279756 
1.1689453125 1:364556 2:361962 3:361424 4:359344 5:356750 6:353128 7:351562 8:349996 9:348430 10:347892 11:344270 12:340648 13:339082 14:335460 15:331838 16:328730 17:325108 18:321486 19:320434 20:319382 21:318844 22:315222 23:314684 24:313118 25:310010 26:306902 27:303794 28:300686 29:297578 30:294470 31:291362 32:289796 33:286174 34:285636 35:282014 36:281476 37:277854 38:274232 39:271638 40:268016 41:264394 42:263856 43:260234 44:256612 45:252990 46:249368 47:246260 48:245722 49:242100 50:241562 51:237940 52:234318 53:233780 54:232214 55:228592 56:224970 57:223918 58:223380 59:219544 60:215468 61:211392 
1.1689453125 1:432338 2:429744 3:429206 4:426612 5:425046 6:423480 7:420372 8:417264 9:415698 10:414646 11:411024 12:409458 13:407892 14:405298 15:401676 16:399082 17:395460 18:391838 19:390272 20:387164 21:386626 22:383004 23:382466 24:378844 25:375222 26:374684 27:373632 28:370010 29:369472 30:365850 31:362228 32:360662 33:359610 34:355988 35:352366 36:349772 37:346150 38:342528 39:341990 40:338368 41:334746 42:334208 43:330586 44:326964 45:325912 46:325374 47:322780 48:321728 49:318106 50:315512 51:311890 52:310324 53:309272 54:305650 55:304084 56:302518 57:300952 58:300414 59:296792 60:296254 61:292632 
1.1689453125 1:272768 2:271716 3:270150 4:269612 5:268046 6:266480 7:264914 8:261806 9:258184 10:254562 11:250940 12:247318 13:245752 14:244186 15:242620 16:241054 17:239488 18:237922 19:236356 20:233248 21:231682 22:231144 23:229578 24:228012 25:226446 26:225908 27:223314 28:221748 29:220182 30:218616 31:217050 32:216512 33:213404 34:211838 35:210272 36:207164 37:204056 38:203518 39:199896 40:196274 41:193166 42:191600 43:189006 44:185384 45:184846 46:181738 47:178116 48:174494 49:170872 50:170334 51:169282 52:168744 53:165636 54:164070 55:163018 56:159396 57:157830 58:156264 59:154698 60:153132 61:150024 
1.1689453125 1:435220 2:432626 3:432088 4:429494 5:426386 6:424820 7:423254 8:419632 9:416010 10:414444 11:413392 12:409770 13:408204 14:404582 15:400960 16:397338 17:394230 18:392664 19:392126 20:388504 21:384882 22:381260 23:379694 24:379156 25:376048 26:374482 27:373944 28:371350 29:368242 30:366676 31:365110 32:362002 33:358894 34:355786 35:352678 36:349570 37:346462 38:343354 39:340246 40:337138 41:333516 42:329894 43:328842 44:326248 45:322626 46:319004 47:317438 48:315872 49:312250 50:308628 51:307062 52:306524 53:302902 54:299280 55:295658 56:294092 57:292526 58:290960 59:289394 60:288856 61:285234 
1.1689453125 1:384778 2:383212 3:382674 4:382136 5:381598 6:381060 7:380522 8:379470 9:375848 10:375310 11:373230 12:372692 13:369070 14:368532 15:365424 16:362316 17:361778 18:360726 19:358646 20:358108 21:355514 22:354976 23:351354 24:350816 25:347194 26:344086 27:343548 28:342496 29:338874 30:335252 31:332144 32:331606 33:331068 34:330530 35:328450 36:327912 37:327374 38:324780 39:321158 40:318564 41:318026 42:315432 43:312838 44:310244 45:309706 46:307112 47:304518 48:303980 49:301900 50:299306 51:298768 52:295146 53:294608 54:292014 55:288392 56:287854 57:284232 58:283694 59:283156 60:282618 61:282080 
1.1689453125 1:393134 2:391568 3:391030 4:390492 5:389954 6:389416 7:388878 8:386284 9:385746 10:382638 11:381586 12:380020 13:379482 14:376374 15:375322 16:372214 17:370134 18:369596 19:366488 20:363380 21:362842 22:359220 23:358682 24:355574 25:353494 26:350386 27:349848 28:348796 29:345174 30:344636 31:341528 32:340990 33:340452 34:339914 35:336806 36:333698 37:329622 38:329084 39:327004 40:326466 41:322844 42:322306 43:319198 44:316604 45:313496 46:311930 47:311392 48:307770 49:307232 50:304124 51:302044 52:298936 53:298398 54:297860 55:297322 56:294214 57:293676 58:293138 59:292600 60:292062 61:291524 
1.1689453125 1:191082 2:189002 3:188464 4:187926 5:185332 6:182224 7:181172 8:177550 9:175984 10:173390 11:169768 12:168202 13:165608 14:161986 15:158364 16:155770 17:154204 18:152124 19:151586 20:150020 21:147940 22:147402 23:145836 24:143756 25:143218 26:142680 27:142142 28:138520 29:137982 30:137444 31:136392 32:134312 33:132232 34:130666 35:127044 36:123422 37:122884 38:119776 39:55670 40:53590 41:51510 42:49430 43:47350 44:44756 45:43190 46:41624 47:39030 48:37464 49:34870 50:32276 51:30710 52:27088 53:25522 54:22928 55:19306 56:15684 57:15146 58:14608 59:14070 60:13018 61:9396 
1.1689453125 1:421924 2:419330 3:418792 4:416712 5:416174 6:412552 7:408930 8:405308 9:403742 10:402690 11:399068 12:397502 13:395936 14:392828 15:391776 16:388154 17:386588 18:385022 19:384484 20:380862 21:380324 22:376702 23:373080 24:370486 25:366864 26:365298 27:364760 28:363708 29:360600 30:357492 31:354384 32:352818 33:350224 34:346602 35:343494 36:340386 37:337278 38:334170 39:332604 40:332066 41:328444 42:324822 43:323256 44:320662 45:317040 46:316502 47:313908 48:310286 49:306664 50:305098 51:301476 52:297854 53:297316 54:293694 55:290586 56:290048 57:286426 58:285888 59:282266 60:278644 61:278106 
1.1689453125 1:344100 2:343562 3:341996 4:341458 5:340920 6:339868 7:339330 8:338278 9:337226 10:336174 11:335122 12:334070 13:333018 14:332480 15:331942 16:330890 17:330352 18:329300 19:328248 20:327710 21:327172 22:325606 23:325068 24:324530 25:323992 26:322940 27:322402 28:321864 29:321326 30:320788 31:319736 32:318684 33:317632 34:316580 35:315528 36:314476 37:313938 38:313400 39:312862 40:312324 41:311272 42:310220 43:309168 44:308116 45:307064 46:306012 47:304960 48:304422 49:303884 50:303346 51:302808 52:301756 53:300704 54:299652 55:298600 56:297548 57:296496 58:295444 59:294906 60:294368 61:293830 
1.1689453125 1:403248 2:401682 3:401144 4:400606 5:400068 6:399530 7:398992 8:398454 9:397916 10:397378 11:396840 12:394246 13:393708 14:390086 15:387432 16:383356 17:382818 18:379710 19:379172 20:378120 21:374498 22:373960 23:370338 24:369800 25:366692 26:366154 27:363046 28:360452 29:359914 30:358862 31:357296 32:353674 33:350566 34:350028 35:349490 36:347924 37:347386 38:344792 39:344254 40:340632 41:340094 42:339556 43:336448 44:334368 45:333316 46:330208 47:329670 48:327590 49:327052 50:324972 51:321864 52:321326 53:318218 54:315110 55:312516 56:311464 57:307842 58:304220 59:301112 60:300574 61:300036 
1.1689453125 1:283177 2:282639 3:280045 4:279507 5:278455 6:276889 7:275323 8:271701 9:270135 10:268569 11:267003 12:265437 13:263871 14:262305 15:260739 16:259173 17:257607 18:256041 19:254475 20:253423 21:249801 22:248235 23:245127 24:243561 25:241995 26:238887 27:237321 28:234213 29:232647 30:231081 31:229515 32:226407 33:224841 34:223275 35:221709 36:220143 37:218577 38:217011 39:215445 40:213879 41:212313 42:210747 43:209181 44:207615 45:206049 46:204483 47:202917 48:201351 49:199785 50:196677 51:195111 52:193545 53:192493 54:188871 55:187305 56:185739 57:185201 58:183635 59:182583 60:181017 61:179451 
1.1689453125 1:315752 2:314700 3:313134 4:312596 5:308974 6:305352 7:301730 8:301192 9:297570 10:297032 11:293410 12:292872 13:289250 14:285628 15:282006 16:278384 17:274762 18:271140 19:270602 20:269550 21:265928 22:264362 23:260740 24:257118 25:253496 26:252958 27:249336 28:248798 29:245176 30:244638 31:241016 32:237394 33:233772 34:230150 35:226528 36:222906 37:220826 38:217718 39:216666 40:213044 41:209422 42:205800 43:202692 44:202154 45:198532 46:197994 47:194372 48:193834 49:190212 50:186590 51:183482 52:181916 53:180864 54:177242 55:173620 56:169998 57:166890 58:165838 59:165300 60:161678 61:158056 
1.1689453125 1:320041 2:319503 3:318965 4:316371 5:312749 6:309127 7:307561 8:307023 9:303401 10:299779 11:297185 12:293563 13:289941 14:286319 15:284753 16:283701 17:280079 18:278513 19:276947 20:276409 21:272787 22:272249 23:268627 24:265005 25:264467 26:260845 27:257223 28:253601 29:253063 30:249441 31:248903 32:245281 33:241659 34:238037 35:235443 36:231821 37:228199 38:225091 39:222497 40:218875 41:215767 42:214201 43:213663 44:213125 45:212073 46:209479 47:206885 48:203263 49:201697 50:200131 51:196509 52:192887 53:189779 54:189241 55:185619 56:181997 57:181459 58:177837 59:174215 60:171107 61:167485 
1.1689453125 1:279550 2:277470 3:276932 4:276394 5:275856 6:275318 7:274780 8:272700 9:272162 10:270082 11:266460 12:264380 13:260758 14:258164 15:257626 16:257088 17:256550 18:254984 19:253932 20:252880 21:251828 22:250776 23:248182 24:247644 25:247106 26:246568 27:246030 28:243436 29:239814 30:236192 31:232570 32:231518 33:230466 34:229928 35:229390 36:226282 37:225744 38:222122 39:218500 40:217448 41:216396 42:215344 43:214292 44:213754 45:213216 46:212678 47:212140 48:209546 49:208494 50:207442 51:206390 52:205338 53:204286 54:203748 55:201154 56:200616 57:200078 58:199026 59:196432 60:195380 61:194328 
1.1689453125 1:466180 2:464614 3:464076 4:463538 5:463000 6:462462 7:459868 8:459330 9:458792 10:455170 11:454632 12:451010 13:447902 14:443826 15:443288 16:442750 17:439642 18:439104 19:435482 20:431860 21:428752 22:428214 23:427676 24:424568 25:424030 26:421950 27:418328 28:415220 29:414682 30:414144 31:413606 32:413068 33:409960 34:409422 35:408884 36:408346 37:407808 38:407270 39:406732 40:404652 41:402572 42:402034 43:400468 44:399416 45:398878 46:396798 47:393690 48:393152 49:392100 50:388992 51:386398 52:385860 53:382238 54:381700 55:378592 56:378054 57:375974 58:375436 59:372328 60:371790 61:370224 
1.1689453125 1:376778 2:375212 3:373646 4:372080 5:370514 6:368948 7:367382 8:365816 9:364250 10:362684 11:361118 12:359552 13:357986 14:356934 15:355368 16:352260 17:350694 18:349128 19:347562 20:345996 21:344430 22:341322 23:340784 24:339732 25:338166 26:305174 27:303608 28:302042 29:300476 30:298910 31:297344 32:295778 33:292670 34:289562 35:287996 36:286430 37:284864 38:281756 39:278648 40:277082 41:275516 42:272408 43:269300 44:266192 45:264626 46:263060 47:261494 48:259928 49:258362 50:256796 51:253688 52:250580 53:247472 54:244364 55:241256 56:238148 57:235040 58:233474 59:231908 60:230342 61:228776 
1.1689453125 1:383052 2:380458 3:379920 4:377326 5:375760 6:374194 7:372628 8:370034 9:366412 10:364846 11:363280 12:361714 13:360148 14:356526 15:352904 16:349282 17:345660 18:344094 19:342528 20:341990 21:338368 22:334746 23:332152 24:328530 25:327992 26:326940 27:323318 28:322780 29:321728 30:318106 31:314484 32:312918 33:312380 34:308758 35:306164 36:302542 37:298920 38:297354 39:293732 40:290110 41:286488 42:285950 43:284384 44:280762 45:278682 46:278144 47:274522 48:273984 49:270362 50:269824 51:266202 52:262580 53:259472 54:257906 55:256854 56:253232 57:251666 58:251128 59:247506 60:243884 61:242318 
1.1689453125 1:415106 2:413540 3:413002 4:412464 5:411926 6:411388 7:410850 8:410312 9:406236 10:405698 11:405160 12:404108 13:402028 14:401490 15:397868 16:397330 17:393708 18:390086 19:386464 20:384384 21:380762 22:377140 23:376088 24:375036 25:374498 26:370876 27:368222 28:364146 29:363608 30:363070 31:362532 32:361994 33:361456 34:358348 35:357810 36:355730 37:355192 38:352084 39:351546 40:351008 41:348414 42:347876 43:344768 44:344230 45:341122 46:340584 47:337476 48:336938 49:334858 50:334320 51:332240 52:331702 53:328594 54:324972 55:321350 56:320812 57:317704 58:317166 59:315086 60:311464 61:308356 
1.1689453125 1:426230 2:425692 3:424640 4:423074 5:422536 6:421484 7:418376 8:416810 9:416272 10:412650 11:412112 12:408490 13:404868 14:404330 15:400708 16:397600 17:393524 18:389902 19:386794 20:383172 21:382634 22:379012 23:375390 24:372282 25:368206 26:364130 27:364046 28:359970 29:356348 30:353240 31:349164 32:345088 33:345004 34:340928 35:337306 36:335740 37:335202 38:331580 39:331042 40:327420 41:323798 42:323260 43:322722 44:321670 45:318048 46:317510 47:314402 48:313864 49:310242 50:306620 51:302998 52:299376 53:297810 54:294188 55:290112 56:286036 57:281960 58:278338 59:274262 60:270186 61:270102 
1.1689453125 1:400196 2:397602 3:397064 4:396526 5:395988 6:394936 7:391314 8:390776 9:390238 10:389186 11:387620 12:385026 13:383460 14:380352 15:378786 16:376192 17:374626 18:372032 19:371494 20:367872 21:364250 22:362684 23:360090 24:359552 25:355930 26:352822 27:352284 28:348662 29:348124 30:344502 31:343964 32:343426 33:341860 34:341322 35:337700 36:337162 37:333540 38:329918 39:329380 40:325758 41:325220 42:321598 43:317976 44:317438 45:313816 46:310194 47:309656 48:306034 49:305496 50:301874 51:298252 52:295658 53:292036 54:291498 55:290446 56:288880 57:286286 58:282664 59:281612 60:277990 61:276424 
1.1689453125 1:358620 2:358082 3:355488 4:354950 5:354412 6:353874 7:353336 8:351256 9:347634 10:346068 11:344502 12:343450 13:341884 14:339290 15:338752 16:335130 17:331508 18:328914 19:328376 20:324754 21:321132 22:319566 23:316458 24:315920 25:312298 26:311760 27:308138 28:304516 29:303978 30:302412 31:301874 32:298252 33:297714 34:294092 35:293554 36:289932 37:286310 38:285772 39:282150 40:281612 41:277990 42:274368 43:273830 44:270208 45:269670 46:266048 47:265510 48:261888 49:260836 50:257214 51:256676 52:255624 53:255086 54:252492 55:249898 56:248332 57:247280 58:243658 59:241064 60:239498 61:235876 
1.1689453125 1:406950 2:404356 3:403818 4:403280 5:400686 6:398092 7:394470 8:391876 9:388254 10:385660 11:385122 12:381500 13:377878 14:376312 15:373718 16:370096 17:366474 18:365936 19:362314 20:361776 21:358154 22:354532 23:353994 24:351914 25:351376 26:347754 27:347216 28:343594 29:343056 30:339434 31:338896 32:335274 33:334736 34:331114 35:330576 36:326954 37:323332 38:322794 39:319172 40:318634 41:315012 42:314474 43:310852 44:307230 45:306178 46:302556 47:302018 48:300966 49:300428 50:297834 51:294726 52:293160 53:291594 54:290542 55:286920 56:285354 57:283274 58:279652 59:279114 60:275492 61:274954 
1.1689453125 1:406278 2:405740 3:405202 4:402608 5:402070 6:399476 7:398424 8:397886 9:394264 10:390642 11:387020 12:385454 13:383888 14:380780 15:377158 16:373536 17:369914 18:366292 19:364726 20:361618 21:361080 22:357458 23:356920 24:353298 25:349676 26:349138 27:348086 28:344464 29:341870 30:338248 31:334626 32:331004 33:327382 34:323760 35:321166 36:317544 37:313922 38:311328 39:307706 40:304084 41:303546 42:299924 43:296302 44:295764 45:292142 46:288520 47:287468 48:286930 49:284336 50:283284 51:279662 52:276040 53:274988 54:271366 55:270828 56:268748 57:268210 58:264588 59:260966 60:257344 61:253722 
1.1689453125 1:404766 2:403200 3:402662 4:402124 5:401586 6:401048 7:400510 8:399972 9:399434 10:395358 11:394820 12:392740 13:392202 14:390122 15:389584 16:385962 17:384910 18:381802 19:379722 20:379184 21:377618 22:377080 23:373972 24:373434 25:369812 26:366704 27:366166 28:364086 29:363548 30:359926 31:359388 32:355766 33:355228 34:352120 35:351582 36:351044 37:349992 38:349454 39:348916 40:346836 41:346298 42:342676 43:342138 44:341600 45:337978 46:337440 47:334332 48:333794 49:330172 50:329634 51:327040 52:323418 53:322880 54:319258 55:316150 56:315098 57:311476 58:308368 59:307830 60:304208 61:303670 
1.1689453125 1:401388 2:398794 3:398256 4:397204 5:394096 6:391502 7:387880 8:385286 9:381664 10:379070 11:375448 12:374396 13:370774 14:368694 15:365072 16:361450 17:357828 18:354206 19:350584 20:347990 21:344368 22:342802 23:339694 24:336586 25:333478 26:330370 27:327262 28:324154 29:320532 30:319994 31:316372 32:315834 33:312212 34:308590 35:304968 36:304430 37:303378 38:299756 39:299218 40:295596 41:293002 42:289380 43:286272 44:284706 45:281084 46:277462 47:275896 48:274330 49:273278 50:269656 51:267062 52:263440 53:262388 54:258766 55:255658 56:252550 57:248928 58:247876 59:245282 60:244744 61:242150 
1.1689453125 1:398414 2:395820 3:395282 4:391660 5:388038 6:386472 7:382850 8:379228 9:377662 10:376096 11:374530 12:371422 13:370884 14:367262 15:366724 16:363102 17:359480 18:358942 19:358404 20:354782 21:351674 22:350108 23:349570 24:345948 25:342326 26:341788 27:338166 28:334544 29:334006 30:330384 31:329846 32:326224 33:322602 34:318980 35:317414 36:316876 37:313254 38:309632 39:307038 40:303416 41:302878 42:301312 43:297690 44:296124 45:294558 46:293506 47:289884 48:288318 49:286238 50:282616 51:282078 52:278456 53:274834 54:271212 55:267590 56:266024 57:262916 58:262378 59:258756 60:255134 61:251512 
1.1689453125 1:456606 2:454012 3:453474 4:452936 5:451884 6:450318 7:448752 8:447186 9:445620 10:444568 11:440946 12:439380 13:437814 14:436248 15:434682 16:433116 17:432578 18:428956 19:428418 20:424796 21:424258 22:420636 23:417014 24:413906 25:413368 26:409746 27:409208 28:405586 29:401964 30:401426 31:400888 32:399836 33:396214 34:395676 35:392568 36:388946 37:388408 38:384786 39:384248 40:380626 41:380088 42:376466 43:373872 44:370250 45:367656 46:367118 47:363496 48:359874 49:356252 50:355714 51:352092 52:348470 53:347932 54:344310 55:340688 56:339636 57:338584 58:337018 59:335452 60:332344 61:329236 
1.1689453125 1:523654 2:523116 3:522064 4:520498 5:519960 6:519422 7:518370 8:517832 9:514210 10:510588 11:509022 12:508484 13:507432 14:506894 15:503786 16:502220 17:501682 18:499602 19:499064 20:498012 21:494904 22:493338 23:492800 24:489178 25:488640 26:485018 27:481396 28:477774 29:474152 30:473614 31:469992 32:466370 33:462748 34:459126 35:457560 36:454452 37:451344 38:448750 39:445128 40:444590 41:440968 42:437346 43:436294 44:432672 45:432134 46:428512 47:424890 48:424352 49:420730 50:420192 51:416570 52:412948 53:409326 54:405704 55:405166 56:401544 57:397922 58:396356 59:393248 60:389626 61:386004 
1.1689453125 1:467112 2:466574 3:465522 4:463956 5:463418 6:462880 7:462342 8:461290 9:457668 10:457130 11:456078 12:454512 13:451404 14:448296 15:446730 16:443622 17:440514 18:438948 19:435840 20:435302 21:431680 22:428058 23:424436 24:421842 25:418220 26:414598 27:410976 28:407354 29:404246 30:403708 31:403170 32:400062 33:398496 34:397444 35:393822 36:392256 37:388634 38:387582 39:383960 40:381880 41:378258 42:374636 43:371014 44:369448 45:368910 46:365288 47:364750 48:361128 49:357506 50:355426 51:351804 52:348182 53:345588 54:342480 55:339886 56:339348 57:338296 58:337758 59:336192 60:333598 61:329976 
1.1689453125 1:415650 2:415112 3:412518 4:411980 5:410928 6:407306 7:403684 8:400062 9:396440 10:393332 11:389710 12:386088 13:382466 14:378844 15:375736 16:375198 17:371576 18:367954 19:364332 20:361224 21:360172 22:359634 23:359096 24:358558 25:357506 26:353884 27:350776 28:349210 29:345588 30:341966 31:338344 32:335750 33:335212 34:331590 35:331052 36:327430 37:323808 38:323270 39:319648 40:316026 41:315488 42:311866 43:308244 44:307192 45:303570 46:303032 47:301980 48:300928 49:300390 50:298824 51:296230 52:292608 53:291042 54:289476 55:287910 56:286344 57:284778 58:283212 59:280104 60:279566 61:275944 
1.1689453125 1:410006 2:407412 3:406874 4:405822 5:403742 6:400120 7:396498 8:395960 9:392338 10:391800 11:388178 12:387640 13:384018 14:380396 15:376774 16:373152 17:369530 18:365908 19:365370 20:361748 21:358126 22:354504 23:351396 24:347774 25:344152 26:340530 27:339992 28:336370 29:335832 30:332210 31:331672 32:328050 33:324428 34:320806 35:317184 36:313562 37:312510 38:308888 39:308350 40:305242 41:301620 42:297998 43:294376 44:290754 45:287132 46:283510 47:279888 48:276266 49:272644 50:270050 51:266428 52:262806 53:259184 54:255562 55:251940 56:248318 57:244696 58:241074 59:237452 60:233830 61:230208 
1.1689453125 1:414372 2:411778 3:411240 4:408646 5:407080 6:405514 7:402406 8:399298 9:397732 10:396166 11:394600 12:393034 13:389926 14:386304 15:382682 16:379060 17:375438 18:373872 19:371278 20:367656 21:364034 22:362982 23:359360 24:358822 25:357770 26:354148 27:353610 28:353072 29:349964 30:348398 31:347346 32:343724 33:342158 34:340592 35:339026 36:335918 37:334352 38:332786 39:331220 40:329654 41:329116 42:325494 43:324956 44:321334 45:320796 46:317174 47:313552 48:311986 49:310420 50:308854 51:305232 52:301610 53:297988 54:296422 55:292800 56:289178 57:285556 58:281934 59:278312 60:274690 61:271068 
1.1689453125 1:428394 2:425800 3:425262 4:424210 5:420588 6:416966 7:416428 8:412806 9:409184 10:405562 11:401940 12:398318 13:394696 14:391074 15:387452 16:386400 17:382778 18:382240 19:378618 20:374996 21:371888 22:368266 23:364644 24:361022 25:357400 26:353778 27:350156 28:349618 29:345996 30:345458 31:341836 32:338214 33:334592 34:330970 35:327348 36:323726 37:320104 38:318538 39:315430 40:314892 41:314354 42:313816 43:312250 44:310170 45:308090 46:306010 47:303930 48:301850 49:299770 50:297690 51:295610 52:293530 53:291964 54:289884 55:287804 56:285724 57:283644 58:281564 59:279484 60:277404 61:275324 
1.1689453125 1:406696 2:406158 3:403564 4:403026 5:400432 6:399380 7:398842 8:395220 9:391598 10:388490 11:386924 12:383816 13:380708 14:377600 15:377062 16:373440 17:372902 18:369280 19:365658 20:362036 21:361498 22:357876 23:354254 24:350632 25:347010 26:346472 27:345934 28:344368 29:343830 30:340208 31:339670 32:336048 33:332426 34:328804 35:325182 36:321560 37:319480 38:315858 39:312236 40:308614 41:304992 42:301884 43:300832 44:297210 45:296672 46:295620 47:291998 48:291460 49:289380 50:285758 51:282136 52:278514 53:274892 54:271270 55:267648 56:264026 57:260404 58:257296 59:254188 60:252622 61:249514 
1.1689453125 1:332731 2:332193 3:331655 4:329061 5:328523 6:327985 7:324877 8:324339 9:320717 10:320179 11:319127 12:315505 13:314967 14:314429 15:313377 16:309755 17:309217 18:308679 19:305057 20:301949 21:300383 22:299845 23:296223 24:294657 25:294119 26:290497 27:289959 28:286337 29:282715 30:282177 31:278555 32:274933 33:271825 34:271287 35:267665 36:267127 37:263505 38:259883 39:259345 40:255723 41:252101 42:251563 43:247941 44:247403 45:246865 46:243243 47:239621 48:239083 49:235461 50:234923 51:231301 52:230763 53:227141 54:223519 55:222981 56:219359 57:218821 58:215199 59:214661 60:211039 61:210501 
1.1689453125 1:405956 2:405418 3:404880 4:403828 5:402262 6:401724 7:400158 8:398592 9:397026 10:393918 11:392352 12:389244 13:386136 14:383028 15:382490 16:378868 17:375246 18:371624 19:368002 20:366436 21:363842 22:360220 23:356598 24:355546 25:351924 26:351386 27:350848 28:350310 29:349258 30:345636 31:342528 32:340962 33:340424 34:339886 35:338834 36:337782 37:335188 38:333622 39:330000 40:326378 41:322756 42:319134 43:316540 44:312918 45:309296 46:305674 47:303080 48:299458 49:296864 50:294270 51:291162 52:289596 53:287002 54:283380 55:282328 56:280762 57:277654 58:274546 59:272980 60:271414 61:267792 
1.1689453125 1:412636 2:410042 3:409504 4:408452 5:404830 6:401208 7:399642 8:397562 9:393940 10:393402 11:389780 12:389242 13:385620 14:381998 15:378376 16:375782 17:372160 18:369052 19:365430 20:361808 21:358186 22:357648 23:356082 24:352460 25:348838 26:345216 27:342622 28:339000 29:335378 30:331756 31:328134 32:325540 33:321918 34:320866 35:317244 36:315678 37:314112 38:313060 39:309438 40:308900 41:306306 42:305768 43:304716 44:303664 45:300042 46:298990 47:295368 48:292260 49:288638 50:287072 51:285506 52:283940 53:282374 54:280808 55:280270 56:276648 57:273026 58:271460 59:268352 60:265244 61:262136 
1.1689453125 1:424926 2:422332 3:421794 4:420742 5:417120 6:414012 7:410390 8:409338 9:405716 10:402094 11:401556 12:397934 13:394312 14:390690 15:387068 16:386530 17:382908 18:379286 19:375664 20:372042 21:371504 22:369938 23:366830 24:366292 25:362670 26:362132 27:361594 28:357972 29:354350 30:350728 31:347106 32:344512 33:340890 34:339324 35:338786 36:335164 37:334626 38:331004 39:330466 40:326844 41:323222 42:320114 43:317520 44:313898 45:310790 46:308196 47:304574 48:300952 49:300414 50:296792 51:296254 52:292632 53:292094 54:288472 55:284850 56:281742 57:280176 58:276554 59:272932 60:269310 61:268258 
1.1689453125 1:399348 2:398810 3:396730 4:396192 5:395654 6:394602 7:392008 8:389414 9:386306 10:385768 11:385230 12:382122 13:381584 14:381046 15:379994 16:379456 17:378918 18:376324 19:375272 20:374734 21:371626 22:371088 23:367980 24:364358 25:360736 26:359684 27:357604 28:353982 29:350360 30:349822 31:346200 32:343606 33:342554 34:341502 35:340964 36:339912 37:336804 38:335238 39:333672 40:331078 41:330540 42:330002 43:326380 44:322758 45:319136 46:318598 47:314976 48:314438 49:311330 50:308222 51:304600 52:301492 53:300954 54:297332 55:293710 56:290088 57:289550 58:285928 59:282820 60:282282 61:278660 
1.1689453125 1:421562 2:421024 3:419972 4:419434 5:418896 6:418358 7:417820 8:417282 9:415202 10:414150 11:410528 12:409476 13:408938 14:405316 15:404778 16:402184 17:401646 18:400594 19:399542 20:398490 21:397438 22:394844 23:393278 24:391712 25:388604 26:384982 27:383416 28:381850 29:378742 30:377176 31:375096 32:374558 33:372992 34:371426 35:368318 36:366752 37:365186 38:363620 39:362054 40:360488 41:357380 42:355814 43:354248 44:352682 45:351116 46:349550 47:347984 48:346418 49:344852 50:343286 51:341720 52:340154 53:338588 54:337022 55:335456 56:334404 57:332324 58:328702 59:328164 60:325570 61:324518 
1.1689453125 1:457332 2:454738 3:454200 4:452120 5:448498 6:444876 7:444338 8:440716 9:437094 10:433472 11:432420 12:428798 13:426204 14:422582 15:421530 16:417908 17:414800 18:413748 19:410126 20:406504 21:402882 22:401316 23:400778 24:399726 25:396104 26:395566 27:394514 28:391920 29:388298 30:385704 31:382082 32:379488 33:375866 34:373272 35:369650 36:367056 37:363434 38:360840 39:357218 40:354110 41:351002 42:349950 43:346328 44:344248 45:341654 46:338032 47:336980 48:333358 49:329736 50:328170 51:325062 52:324010 53:320388 54:319336 55:315714 56:312092 57:308984 58:307932 59:304310 60:300688 61:297066 
1.1689453125 1:251632 2:249552 3:249014 4:248476 5:247938 6:244316 7:240694 8:237072 9:233450 10:232912 11:229290 12:225668 13:222046 14:218424 15:217886 16:215806 17:212184 18:209590 19:205968 20:202346 21:198724 22:198186 23:197648 24:194026 25:193488 26:192436 27:189842 28:187248 29:186710 30:184116 31:183578 32:180984 33:178390 34:175796 35:173202 36:170608 37:170070 38:167476 39:166938 40:164344 41:161750 42:158128 43:155534 44:154996 45:154458 46:150836 47:147214 48:144620 49:144082 50:140460 51:136838 52:133216 53:132678 54:131626 55:131088 56:127466 57:123844 58:123306 59:120712 60:120174 61:117580 
1.1689453125 1:407868 2:407330 3:404736 4:404198 5:403146 6:401580 7:400014 8:398962 9:395340 10:393774 11:390666 12:387558 13:385992 14:382884 15:381832 16:378210 17:374588 18:370966 19:367858 20:364750 21:361128 22:357506 23:354912 24:351290 25:349724 26:349186 27:348648 28:347596 29:343974 30:340866 31:339300 32:338762 33:338224 34:337686 35:336634 36:336096 37:332474 38:328852 39:326258 40:322636 41:319528 42:318990 43:315368 44:314830 45:311208 46:307586 47:303964 48:300342 49:296720 50:293098 51:290504 52:286882 53:285830 54:284264 55:281670 56:278048 57:276482 58:274916 59:273350 60:270242 61:268676 
1.1689453125 1:421992 2:419912 3:419374 4:418836 5:418298 6:417760 7:417222 8:415142 9:413576 10:412524 11:408902 12:407336 13:405770 14:404204 15:402638 16:401072 17:399506 18:397940 19:396374 20:395322 21:391700 22:391162 23:387540 24:387002 25:385436 26:383870 27:382304 28:380738 29:379172 30:376064 31:375526 32:371904 33:371366 34:370828 35:369776 36:368210 37:366644 38:365078 39:363512 40:361946 41:360380 42:358814 43:357248 44:355682 45:354116 46:352550 47:350984 48:349418 49:347852 50:346286 51:343178 52:341612 53:340046 54:338480 55:336914 56:335348 57:333782 58:332216 59:331678 60:328056 61:324434 
1.1689453125 1:324052 2:321972 3:321434 4:320896 5:320358 6:319820 7:319282 8:318744 9:315122 10:311500 11:309420 12:305798 13:302176 14:301638 15:298016 16:297478 17:293856 18:290234 19:286612 20:284018 21:281424 22:277802 23:274180 24:270558 25:270020 26:267426 27:264832 28:262238 29:261700 30:259106 31:258568 32:255974 33:253380 34:250786 35:248192 36:247654 37:245060 38:244522 39:243984 40:241390 41:238796 42:236202 43:233608 44:231014 45:230476 46:227882 47:227344 48:224750 49:222156 50:219562 51:216968 52:214374 53:213836 54:211242 55:210704 56:208110 57:205516 58:204464 59:200842 60:200304 61:199766 
1.1689453125 1:429484 2:428946 3:428408 4:427870 5:427332 6:426794 7:424714 8:421606 9:418498 10:416932 11:415366 12:412258 13:408182 14:407644 15:406592 16:405026 17:401404 18:398296 19:396730 20:392654 21:390574 22:386952 23:385386 24:384848 25:382254 26:381716 27:380150 28:378584 29:374962 30:374424 31:373886 32:373348 33:370240 34:369702 35:369164 36:366056 37:365518 38:361896 39:361358 40:357736 41:357198 42:353576 43:353038 44:349416 45:345794 46:341718 47:341180 48:340128 49:336506 50:334940 51:332346 52:331808 53:329214 54:328676 55:328138 56:326058 57:324492 58:321384 59:317308 60:314200 61:311092 
